-1.954443548895185,5.263199915318065e-05,0.0001260650962595548,0.0001550844111927213,-0.0001296383650868483,-0.000231623051856034,-0.001674819738134659,-0.002502397980795496,-0.00918865708882214,-0.001572236129996701,0.000282021524794752,-0.000139662932930804,0.0004004232561568863,0.002413430338000087,-0.003953764040836654,-0.007264391994610449,-0.0004705853525793882,0.0001443742050255974,-0.0001623135062589371,-0.0001438769687749668,8.843607852959571e-05,-4.092009463763245e-05,1.091812096185824e-05,-4.617710636994041e-05,0.000192336332115773,0.001678254456908624,0.0247486911638643,-0.01012073055815925,-0.03775858073593939,-0.002676807895614531,-0.002144706747721464,-0.005291016575176749,-0.00351999518827532,-0.02381808755573228,0.03694952000349484,0.07933772172570111,0.005233613899845571,-0.001090000892681849,-0.002568263878229434,-0.0002899358529446351,0.0002490981821068608,4.525380237995161e-05,9.658067156913334e-05,0.0003738728239441081,-0.003745405060716753,0.01915417188069665,0.03409781300241775,-0.08870694995964003,-0.008678193995910129,0.00455111061344031,0.03980584197498187,0.06187285668572826,-0.01846097062139722,-0.04019385183614831,0.09863630763332759,0.1114141334594281,-0.07398087393679756,-0.01486922778680096,0.03609453532453318,0.004955182889885106,-0.0004593048062804696,-7.689873202633989e-05,0.0006290810880325167,-0.004987564517056255,-0.0143261288213678,0.07482804932955121,0.08562731656176382,0.1851558819852617,0.03619821318633559,-0.09131984834954388,0.07492626261156388,0.145857459906288,-0.2015119190458479,-0.1854508839887044,0.1825025686454401,0.02631963227164622,-0.1136015515079337,-0.04969669273318868,0.1123635097785006,0.02552253929716737,-0.001945957328855408,-7.942334395913539e-05,0.000384081300055154,-0.01313958218892157,0.0644181159026908,0.288922804863765,0.161040462426127,0.3371315182985911,-0.1742491349894336,-0.06166422295821129,0.05694647749167354,-0.2552021363704546,-0.7945199247333106,-0.9644295917924295,-0.4644155921999821,-0.05779759657548635,-0.06003679078626503,0.1237581783725256,0.1692263900298473,0.06040526056425681,5.273003532728135e-06,9.465396018767853e-05,0.0005540658042583462,-0.01080239083054011,0.1478595676648817,0.361551802417107,-0.02848022090230018,-0.3564387337941989,-0.099924992487197,0.2208746594478558,0.06886626138427393,-0.3513316094203157,-0.4675453520738088,-0.3997627952270261,-0.258158474719275,-0.1143225280072503,-0.1363511654827979,0.3523163828849856,0.3237296911163671,0.07264011377314655,0.0004929962244797415,-0.0001383040301865021,0.00623018925109884,-0.03231612466203597,-0.1890491811821441,0.2642283549496249,0.3769797028901342,0.2993400781817965,0.3879772972206279,-0.1402982394691479,-0.2851061294308594,-0.4470250687669959,-0.3754829794188763,-0.8108235516672999,-0.646161872057332,-0.181356551806253,-0.05509120689174023,0.1927777823352399,0.3309126776866113,0.1848355127261327,-0.007965812904489207,4.664118666196177e-05,0.009222032550111375,-0.2079520112344178,-0.212199298164842,0.5329997288926406,0.2887692753125999,-0.0260389256430354,0.146234181361449,-0.3428402481765576,-0.2050054048216944,-0.3574265904095674,0.1601857393176178,-0.363673328631023,-0.7697681133132337,-0.280722475430163,0.09597383694538635,0.1686011331741914,0.2752855293630443,0.3331090970060379,0.005116536586583318,7.608710841841872e-05,0.005022725435290691,-0.1707319752241849,-0.1920604149697989,0.0921746604866122,0.3841630939725504,0.6169793919253963,0.3056615386822039,-0.4320319939615269,-0.44131464458574,-0.5012875277005053,-0.1823844037374885,-0.3287111189614728,-0.9021097581326858,-0.1589376100963788,0.5419920944357165,0.5695430587998003,0.2705102087367349,0.1942069487267297,-0.02451831132641638,0.0004117929595794374,-0.01128909844617599,0.1123875725700112,0.1680079194623355,0.002474456006971442,0.7688690808951555,0.3437896659170779,0.1679547380230914,-0.5728750403807685,-0.160778874893898,0.3348954231676862,0.4806984192136615,-0.2935813293958139,-0.6212350209244395,0.2345992186029986,0.1627349699975715,0.3470336680106856,0.4896620130846047,0.3588626137358119,-0.01506243072560862,0.004219836728575775,-0.05456482780596733,0.3065836671020952,-0.1113291884008161,0.004445156119961316,0.1916450086788271,0.08862374422682594,0.1385040895332806,0.2471764720449854,0.08159091413926726,-0.3343859594996217,0.5878905849619525,-0.6482511294390674,-0.2861433162617771,0.5221975876002899,0.6568938744159193,0.3887808540988158,0.06562705552660278,0.1794616147354916,-0.01592897710533056,0.007750163584756812,-0.1027259017226529,0.3519560766889751,0.0795055109955395,0.182701230718768,0.1551672555629522,-0.4824172344842135,-1.033885837084817,-0.2976031837898365,-0.3829385563385825,-0.6188072020383595,-0.2535050555835525,-0.4968656359758693,-0.2767098969259057,0.6749371708273939,0.4911969361198523,0.3857009262860027,-0.4690664167017828,0.07755831664388978,-0.007974315689334589,0.005846837950665161,-0.07169390660266814,0.1425992258729862,0.2470419445716054,-0.3468370291506047,0.150653609332802,-0.2837278457983673,-0.9363579864097328,-0.2550488463076679,0.5347250368320521,-0.06380805844732698,-0.4756945217956051,-0.2034931691712343,0.3364942683688731,0.1164784026469292,0.1154182699333837,0.548851616751458,0.1323142406534278,0.05712073467800888,-0.0387010452003709,0.001328306740723591,-0.02409937695745269,0.05198296814615093,0.2992658164577252,0.08907040273964231,0.2589536565222553,-0.01626846720409973,-0.3683191384758108,-0.1152677932746387,0.3628524625889169,-0.2439076412801214,-0.259120179789587,0.005043236852278269,0.3889829769340503,0.03172328333760517,0.1497224963826507,0.4619597661503109,0.6154199088493293,-0.07043097229411838,-0.05518756892724865,-5.967122141984595e-05,-0.01121194722998907,0.1408829270627895,0.2651861851843463,0.03026909503227969,0.5381233481648003,-0.4077168088223476,-0.6132181396194942,-0.6439451155145053,-0.1855044787719892,0.1716963769992125,0.1658533048123902,-0.4024007507647929,0.1906568947677893,0.4596445852416325,0.2162893693426132,0.3287744524665565,0.6006679465162782,-0.03749937369903451,-0.00635959516133853,0.0001906072158400331,-0.009788329930176091,0.3279236419430062,0.2330291334058991,-0.2469352843092003,0.09164240524505456,-0.00163345928915455,-0.7314174194670284,-0.8715273586089058,-0.1244581574763296,-0.1079408500135016,-0.06248241854199776,-0.1438454822363593,0.08754598866989137,0.09212226507188383,0.1621476254040941,0.2459788959598638,0.2356732360319939,-0.03245758591333294,-0.00729581045750761,7.36775434328557e-05,-0.007406156671655843,0.2509178649471949,0.2627046829261471,0.07573648794726964,-0.05609096122460977,-0.5649571491507831,-0.8183127819990986,-0.7277216650933165,-0.5000386609207715,-0.4186550281212174,-0.3841284879180915,-0.1519946052441154,0.1616511012765495,0.5151300565942853,0.625840726188619,0.2964193903692643,0.05825371012209218,-0.009375488035679962,-0.00393196844321356,2.714426528315796e-05,-0.00203338822520602,0.06039161404917068,0.147964312256487,0.3603697078623664,0.5675075623570058,0.1594942675821794,-0.2097542662554045,-0.2990597741783794,-0.2835535331200697,-0.05705689504620565,0.1023333789077525,0.3036057261194138,0.2532542253236603,0.3350113818689091,0.3742111794048828,0.05987589516550618,-0.01371604163642575,-0.0002712083286702885,0.0001740263063333304,0.0001927749172932245,-0.0001089469668376357,-0.005780474692917752,0.02295382167547274,0.1636775827334707,0.2191792040041951,0.209482149902996,0.06651633294948282,-0.009198770495676658,-0.02015544458900006,-0.0146958193014784,0.06011655082543568,0.1058695051051556,0.04167437546709032,-0.03224361201216418,0.008874172734615278,0.009638381521604233,0.0003091304532093308,-0.000166273963936065,-0.0001614919391721954,-5.32308276637655e-05,-5.106606700143471e-05,2.244256738633097e-05,0.0002707746967539396,0.00133287740539302,-0.003304595942862699,0.01811988784247738,0.001842505002765402,0.005169983093758046,0.002055318689548224,0.003550229560327149,-0.002343782478701719,-0.005813553589848077,-0.001011819573034258,-0.008238573927605913,-0.005370294857341781,0.001884304083579988,0.0005522387116226681,0.0001083305258646083,1.020078818017483e-05
0.04803430586791484,-0.0001674549799904161,-0.0002032151770754988,7.198950636777146e-05,0.0001219536259031852,-6.687926339829948e-05,-0.002941156448955645,0.01017047678346135,0.007348893029525402,-0.001658054952761078,-0.004748248429302783,-0.0008940195519622993,4.131221755365592e-05,-0.0004437035744412098,0.000616276339743553,0.0009513162337700224,-0.0002617476251968215,-8.770961627410787e-05,-0.0001294878058914411,-0.000146745759472734,-0.0001008064405460786,-2.645348741368812e-05,7.872079024230542e-05,4.349277989063815e-05,-0.001512931769348331,-0.002049912052390758,-0.002556474430594526,0.01372312731936166,0.002893659370929965,0.02668684635731233,0.05278558164339693,0.006104037532700975,-0.003117130265525246,0.01051867776140908,-0.001532110054741354,-0.007393926004471164,0.005292862530178523,0.003518021936140852,0.0002414576039634539,-8.166748640124346e-05,-0.0002249473043123851,-2.372660882007242e-05,-7.890836790875752e-05,-2.114980866644645e-05,-0.004165127004237987,-0.008232685146475674,0.005540792922498459,-0.05414168996915535,-0.1317567050461904,0.04297456536123903,0.09376232019876127,0.06593660751991344,0.07016130247544487,-0.03576145267016641,-0.2305344549239524,-0.1851134658942944,0.0219704481947176,-0.04819270300703556,-0.02969627737889632,0.0006006039530374877,-0.0003559863919231022,0.0001406247973048308,-0.0002157912475602539,-1.199525393852191e-05,0.001073294656061778,0.01319570726469271,0.1142039446043076,0.09283090747267644,0.01193828472655165,0.1695724960059562,0.1266035098780535,0.1366365004507625,0.05750409618095353,-0.1907145272478175,-0.2990260508492332,-0.1307096498445415,-0.0330356825396208,-0.03525706384361496,0.06286413390726089,0.01123304700529311,0.004850564542204311,-4.461405295353815e-05,-0.0006313303756731778,-0.002710345795581779,0.05152975998670844,0.1856840277194251,0.3103355101602328,0.3596284343317765,0.2207059643835426,0.14740526286421,0.2750454416819065,0.1975414739733978,0.0121719153965728,-0.2187040383683295,-0.1429076823308384,0.05512749094749098,-0.2268199477931578,-0.09829865923798632,0.1196098916586618,0.0701171824196147,0.02941855018534432,0.0001108533134525501,-0.003818820210277457,0.03832035132737044,0.154821546915627,0.5906913879464197,0.6255576135293259,0.452247189482771,0.2973385338708285,0.3483389072319731,0.127844070146393,0.4399130714790098,0.4741719166532027,-0.2145324451345698,-0.6440307606456435,-0.3560804512508779,-0.3077826286423698,0.0773152551303642,0.2932865724288153,0.2559886002983284,0.09022905087493426,-0.001878892519973744,0.01410519946865988,0.1728473993889735,0.4370617859728283,0.7911408799272245,0.861893807453761,0.5575174069449426,0.5451358374768056,0.1823908473557773,-0.01562159766248144,0.4425136081492766,0.6203817628624582,0.3919943041035935,-0.5685405384043352,-0.2898954921298888,-0.05218161346096304,0.09644497397086423,0.1260639219612581,0.2844674568013171,0.07559686190837493,-0.001731768494273994,0.01803891284036832,0.2129129497721879,0.2882844076571872,0.3781327937823252,0.4003402344288112,0.3852036840055314,0.6015777927832242,0.2303472258545061,0.4694834074616228,0.1361718630292939,0.7987026748117521,0.9841051936682187,-0.4420808940560227,-0.4275139311831401,-0.3637547244195243,0.1092451983489125,-0.07678989463906669,0.1633920363396023,0.05073885080665437,-0.005480281515819333,0.06964117197755561,0.01680253570033123,0.02192884482955305,0.3693726497080558,0.02431196122016924,-0.04354690912325771,0.1355514626970835,0.2538729954469809,0.3531610358351713,0.1016768531540641,0.529518203334884,0.5556889978466932,-0.08638051435233408,-0.2324773639619256,-0.5080431154656598,0.1090297456203727,0.2007742798570747,0.4555474744272694,0.05917080247084577,-0.01423200221776137,0.162806987460202,-0.01536395242713932,0.1622545152019667,0.3854647526049679,0.1272091908565249,0.1766003998194246,-0.2200247478610227,0.06979309973947873,-0.1671012871648008,-0.2027957954395326,0.2313949411436194,0.2959913909678478,-0.3591593206167144,-0.444888316041635,0.1206190629162338,0.05402969193184274,0.03576049091746727,0.4045980457848611,0.02722972159410597,-0.01444990790326541,0.1363501477787559,0.2479929639051943,0.05661624897123461,0.5080209701208994,0.06329192061649813,0.02004189527853993,-0.9240067672856153,-0.6318268385079131,-0.223189529511308,-0.2276514273694552,0.1341471394626518,0.3706598695910672,-0.8676732354613977,-0.3466849169372887,-0.2168346573498972,-0.1914787669032123,0.3507784645680251,0.3355245969782482,-0.01097744904564189,-0.007476681853690091,0.01132713337534358,0.03346684858698254,-0.4031096833676339,0.2163594527118426,0.7416374728352387,-0.07376636696836691,-1.064478389387793,-0.2554656544193286,0.3481795300452667,-0.004524188259063007,0.6035929788355588,0.33877457279767,-0.0734462021580448,0.1479565689352911,-0.1935720421577065,0.07426743985688557,0.5736496549115561,0.2110765675769341,-0.03535746455232412,-0.004018195578115482,0.003299559192894617,0.03984311760935459,0.3814046564099944,0.7099474303915299,0.6937700623108715,-0.3659368928798731,-0.4018635731534934,0.03685714103255847,0.5666590421166269,-0.2286053601825557,-0.260498593752152,0.1319047401153002,0.2124346058653739,0.07057250938773321,0.4693609144517247,-0.01530860323250165,0.06176610446537085,0.07927280370371136,0.008781732680359564,-0.003860415962934525,0.01097627611824009,-0.1118997679171589,-0.1906497431752068,-0.01150918451369789,-0.1764771432297929,-0.1420240371126021,0.01739952136310351,-0.02722214231319089,0.3775496958105988,-0.03367976221662242,-0.1816002526874766,0.0843265118390544,0.3512418443410827,0.0008316245413097214,0.3821756111891545,0.252471739052824,0.1258637714733546,0.0178043079164167,0.01323851576427771,-0.002846975470768735,0.01361567033110724,-0.09522661239408133,0.1351828593771053,-0.1740066829960785,0.1393677365129975,0.6301459882544781,0.3468623815290469,0.5346476206587445,0.3743785202739878,0.00570138477353636,-0.4068214120086503,-0.4198165422769931,-0.6025877709036973,0.2302286996760728,0.3541464272012517,0.3306172744252786,0.3076377237365126,-0.005849616310664614,0.0009674258328980436,-0.00374342493832486,0.03361926758647477,-0.06124337091690954,0.05217185871318875,-0.1960108847049005,0.1641005568782061,0.3793231787447119,0.3452695642447541,0.4984738891278525,0.3209406751401525,0.2683768553627259,0.08720885996183826,-0.09612149248055146,-0.318431176488597,0.1554288833430729,0.4148130700071324,0.1270838801151818,0.1485955054930425,-0.00563068190307901,0.001441475752542776,-0.0005129453517590914,0.006240439738084618,-0.03928451820439172,-0.2439134143227256,-0.5721902328433575,-0.330125627195093,0.02247485941513202,0.149263415586234,0.2059421205731942,0.1479110997055375,0.317197710735089,0.3978587192814427,0.439551179673399,-0.08357701042541936,0.05626813146224847,0.3259480683838628,-0.01845544756290171,-0.001015086828551059,0.01806652222383829,-0.0007797369538460209,0.0003796294045774667,0.001730142755687974,-0.07923731918576007,-0.1607237105133189,-0.5073230775830074,-0.4541832266279487,-0.3134130448211223,-0.1798316682216029,0.04296086162520051,0.2037519111273729,0.1390131670104648,0.2159397955603425,0.3928444893874716,0.05144680697450524,-0.2892741489162599,-0.06146599920137355,-0.002965354915673369,0.003898527284086092,0.010197072324673,-0.0006445854156529874,0.000107270775272834,0.001150434827808544,-0.01262881998151835,-0.007455647958301562,-0.09923098472101817,-0.2850010581578285,-0.1617796049199059,-0.3000348100620676,-0.1877530219623997,0.01437173601711478,-0.01844650848667474,0.076964871425792,0.1429181748215585,0.03936996213912772,-0.04705501035628618,-0.01491951072963013,-0.0006019798369257151,-6.429307046988099e-05,-0.0005064972945009195,-4.962232965252206e-05,0.0001423713789587657,-2.515075128599829e-05,7.159264016633767e-05,0.01471870436103726,-0.01412385925154328,-0.01282589524232309,-0.005811086685592184,-0.001768163560937573,-0.01643441014662252,0.002091954139851867,-0.002634900441488436,-0.006079734123208827,-0.0265812810907847,-0.058071535818709,0.003276916226013663,0.002249436025085023,-3.963231507053627e-05,-1.418882760943087e-05,0.0001926924742613664,-9.562748486648107e-05
1.571518598513507,-0.0001679702429356375,-0.0001017468523433866,8.843607301140063e-05,8.851085337806323e-05,-0.0003226358802713059,-0.003984050890890732,-0.004461743696538679,-0.01719824286823511,-0.006156836876763014,0.00172755778943199,0.0004398559593771143,-0.0002640650842476263,-0.0008227645495516877,-0.004808320103456814,-0.002770071525158477,-4.388690957630974e-05,3.552211352083304e-06,0.0001749928588970135,-8.665097544344912e-05,-9.316460218168543e-05,-0.0001410467182831645,-0.0001531445665941491,-0.0001525537490394967,3.820378038100455e-05,0.006398603066920021,0.04124915009641615,-0.0009633400967453522,0.04348804473481068,0.02054589514885954,-0.03086710243301059,-0.006550682301474223,0.004896284065555805,0.005484861768121918,0.04400224406516747,0.02545742868482106,-0.003777188396777223,-0.004682785362715042,-0.00229273860949522,-4.653721010694785e-05,-0.0002210794093270951,-2.53331481131881e-06,-8.045503272011929e-05,-4.736462081255036e-05,-0.005761450941348606,-0.006539602801741796,0.06324279823487022,-0.06673903242565545,-0.05415014386730679,-0.03096316269198993,0.06007068277643486,0.1102171736045424,0.09905716401607152,0.2037978792722384,0.3655571192053209,0.2200159355850516,0.08767517698514214,0.05709845785620522,0.032891427136703,-0.005353275656666618,-0.001014462865171209,0.0001273159872331539,0.000392521142678533,0.0005197676808046352,-0.02695641825782876,-0.06922614516828335,-0.02762530601072097,-0.2216975825487003,-0.2508813806728926,-0.1236212733435432,-0.3812421851082342,-0.2841562791558224,-0.00269755501304744,-0.01898533928650398,0.08785344965034908,0.1142040199217967,0.05606139075213219,0.0776770752963077,0.03490526965382745,0.02545402482980919,0.008861266175791754,-2.79437852421402e-07,-0.000430387537902765,0.0005109768403702419,0.01030951943007617,-0.03367734138117314,-0.09300645805613808,-0.2159782485178071,0.04154721608469349,0.08159219662586305,-0.3630244822572712,-0.6307454052014784,-0.2681471181749637,-0.1354408536990051,-0.2180897083738274,-0.01657457480695095,-0.01948094658176717,-0.2536586883380214,-0.05172200756809372,0.109262386022512,0.02973641518779023,-0.0002159701539431258,-0.007008958051335584,0.04410300925467181,0.1021898163865437,0.1956467117476244,0.08230486589575833,-0.03098861554249912,0.1134641624383339,0.2154113949220188,0.2866943329514988,-0.402869680090354,-0.84264182350316,-0.6440830927694399,-0.08481233819975513,0.1489379168599646,0.2822677403350952,0.2615310904726345,0.1021084340030027,0.03533808317208124,-0.02761198280228094,-0.00505579738012894,0.02820695205434231,0.1985323022583835,0.2094228554311467,0.4184995266275714,0.2745923307117543,-0.01439784451123502,-0.4345866376401163,-0.4794749761857655,-0.186602149840219,0.06943088842855767,-0.3007908325501223,-0.8795866734264869,-0.2328745466296829,0.3630240267062504,0.3774607114819884,0.09279516479660406,0.06089561734308533,0.05729144507519821,-0.04906655139252016,-0.00265390355332535,0.0618896664058658,0.2967432735482078,-0.100177145960221,0.1237099221024561,-0.06072498450916469,0.0609810999771152,0.1910846922314693,-0.2354181655282495,-0.3929421813744417,-0.2192247724264949,-0.1946305272963067,-0.3515147705292122,0.0632063809382588,-0.130320022473762,0.1794797090345957,-0.2187899885682781,-0.05903578070610047,0.0692564295329979,-0.0390153957469508,0.004508476342495914,0.03255648891049154,0.2324133965365385,-0.06707812995337331,0.3249102293961975,0.1317944924261477,-0.01767533059972315,0.1627233854611859,-0.05044151098300088,-0.07232237040940842,-0.2970998275339198,-0.2443563988586289,0.4705694556908399,0.4597722452587935,-0.04014697407941559,0.1715454769559856,-0.3824264221896287,-0.228564838705864,-0.03689452127793633,-0.03131493446609746,-0.0003670672115770992,0.02433311527335473,0.1901012610106348,-0.05541394226821932,-0.0009032049596634304,-0.4503702125032404,0.01056147382317958,-0.1873278912192314,-0.008857569746440931,0.320627835285649,0.1526298644187763,0.9177894564737552,0.9411737269029907,0.6687023756668105,0.2552060917969221,0.1954147055363256,-0.281718596731621,-0.02180742072595968,0.2034919730858442,-0.01298658983072999,0.004939057611258847,0.03231742415381764,0.1972051412823173,0.03985069790035604,0.1183475791276058,0.2946054469552914,0.2208975934947805,0.4447817431150165,0.6314466396633936,1.090196102839256,1.549309510939644,1.187803896892322,0.2741197619287008,0.3497690348033943,0.3763443710013335,-0.2784743541936022,-0.1228725622778633,-0.07830954723473608,0.2695720179152316,0.1327707170657548,0.01671220475266962,0.034817929149453,0.2999717589996764,0.1090307918188157,0.2013661587743422,0.4989185092312834,0.1369518271235027,0.4587923553803667,1.061859864041096,1.008101018779279,0.7245784241958284,0.02700275116965271,0.1011438306851878,0.04172475708719854,0.08103564383770366,0.1826265295839705,0.4871185179177681,0.1466012991279616,0.1315388312939555,0.09275985559236886,-0.00844868232353308,0.1347412691389026,0.12656539083691,0.1787712273711387,0.2012221931151934,-0.2836218212268386,-0.1697972821576514,-0.5293400244323847,-0.2413522769708484,-0.7785021105077776,-0.4797299751790376,-0.07777892607428065,0.2220189839307392,-0.2450632056254549,-0.1686817608911785,0.2826893423207166,0.4562599027424239,0.2629313932839473,0.02627918156586009,0.005388328845592722,-0.005304380334332007,0.06001074186468644,0.02306771773822577,-0.07808762084429983,-0.09930601366539073,-0.4833394199357929,-0.3016412346650166,-0.9990284965511346,-0.6389306202902337,0.06666533085595081,-0.2157043193351279,-0.08858703118834682,-0.3642856295383728,-0.1830598170779574,0.1653815874266577,0.1733048858136521,-0.3201941501259231,-0.08366400868671418,0.0006614584850073164,-0.06821925718468401,0.001741859606822141,-0.01492211278148334,0.0301571756196062,-0.03676094044540435,-0.3716255969055803,0.2596602226731936,0.2251618247783508,-0.4383448958951884,-0.3239915326623893,0.2957448265255931,-0.1680614306954367,-0.2748233315957413,-0.03698499843332675,-0.1364721900027271,0.3832536190883377,-0.1257881571839258,-0.3337806761233978,0.1531270594158607,0.1106324086381325,-0.03131908096716005,0.001393670250465492,-0.01638929959567389,-0.01889167591544331,-0.07709731435132906,-0.3745431873552266,-0.09590932085460392,-0.2683573026054241,-0.7372714641170566,-0.5105713212192872,-0.05930237489913204,-0.2543921998092928,0.04506877358060047,-0.1133522813870232,-0.1255808637282116,0.009233273187550108,-0.0749944836611478,0.1245955488375942,0.1462243868906586,0.01211181724886052,-0.1102119152851067,1.382734464330015e-05,0.004294605105175047,-0.04485788662719356,-0.3583400206174105,-0.4398302555679581,0.08620769486788231,-0.1074731237770374,-0.7021830437450067,-0.3958326596582412,-0.2459837656506068,-0.4233853609198095,-0.5606489381770414,-0.440069648481073,0.3630713424167258,0.326930537693667,0.3103908133555561,0.2792498801310974,0.2079268577971325,0.0656692660172518,-0.0230007205546055,1.91857976569006e-05,0.001737883110507429,0.04193260257621217,-0.1165303606625527,-0.04133393066313601,0.2705514702055863,0.4380813174810116,0.04103267522275569,0.0271301910581041,-0.09494278606641654,0.09728579146772019,-0.05529498695498045,-0.02942503530283586,0.2934107689553115,0.2702470442566819,0.1721035143875669,0.06367869016971478,0.01454309448104212,0.01133946075107561,0.003659698492299062,-0.0001313453063211572,-0.0003535058038761895,-0.0007139438561474514,0.03482214799147378,0.1478029222288158,0.1959614344620408,0.2905964069786813,0.2038279972037534,0.1323339537226669,0.09201744956393536,0.04043937430740904,0.2095768927297785,0.2179308693190272,0.04511330947003498,-0.007550795572418843,-0.01010753271353644,0.002324368661345591,0.0002093860841421179,-0.001338242610692991,-7.148030919639639e-05,2.927389935928151e-05,7.666992625643212e-05,-4.974777632692153e-05,-0.003882146897551118,0.05110105472822331,0.01710806268898551,0.03808120289870297,-0.0007914365376777453,0.001895064991465414,-0.007565516592915899,0.008278607316879025,0.007556567188670303,-0.006391288483380596,-0.004558640618489685,-0.0002684755630031349,0.0002087919427903096,0.004298341546071035,0.0008866366486239688,-5.363272685990805e-05,8.00428929412634e-05
0.1201468331254045,9.670100230100113e-05,0.0001951576425138319,-0.0001255505137879209,-2.080363512374105e-05,-3.596637582112539e-05,-0.0001294767259133717,0.003783685654276971,0.003546043776083183,0.001707078916771361,-0.003027235230928735,-0.001137620034430368,0.0003504334933250015,0.0001638053961482511,0.0002067569718704834,0.001040776300329441,0.0003317804594011748,9.950836428078903e-05,0.0001588753539539637,0.0001774575571554893,-2.872690765626424e-05,-0.0001481935814846422,-0.0001434467241574128,-7.775272270488274e-05,-0.0004248158858123528,-0.0007692413816813363,-0.005886378776042306,0.02248405343996817,0.03272952019080778,-0.004675816282596171,0.001340577893776512,-0.006984527638068532,-0.004769118684070092,0.001531313666109412,0.006126130745706506,-0.003567392043747449,-0.002744342537685048,0.004350041347115922,0.0007859591056175529,-6.315875045921998e-05,0.0001704430464451792,-7.034124596184518e-05,-0.0003131556098922213,0.0006759630716988891,0.005443321350774378,0.01439237886278441,0.09031156140539483,0.2836716208597024,0.4441767212017112,0.3725123786427361,0.1682826721788584,0.03009296142836782,-0.01234174545077961,-0.1179713152807627,-0.2022620180845584,-0.181511174288616,-0.1549452759958626,-0.07937054698133332,0.0002738167064870956,-0.006930279616020864,-0.002016126482323769,-0.0001862010240269221,0.000177450526946319,-0.0003408937518709971,-0.03119254237672632,-0.01484752411314607,0.004003649413678369,0.3819328141037787,0.6548397001778279,0.2592510015523803,0.1817856713757558,0.1316680203169664,0.0789185205350401,-0.0883763052213225,-0.4980236682236733,-0.3570169425904681,-0.07538579999730913,-0.1669706754107588,-0.08372147180045184,0.04730459452178548,0.002162363064184321,7.947741962644488e-05,0.003011686749816188,-0.01680185776039268,-0.162228693115359,-0.2022108831823552,-0.2990347538927958,-0.02048159033920847,0.1614743564366416,-0.2798133443220198,-0.2032169955024846,0.199838969702916,0.05907785581041289,-0.4112365571498992,-0.7539580279658641,-0.2960156581597687,0.05664128649709285,-0.02984125668228109,0.02743561715235924,0.1766204396185438,0.007481942822455994,7.765904454829949e-05,0.001065644196694878,-0.04342206962098066,0.04018445455113493,0.06937529338099782,0.01928037285908595,0.3585735189609418,0.4847798195656496,0.5290726976417444,0.03844164547513001,-0.2439229293256646,0.1084148861880677,0.1211687358433056,-0.9687922342178298,-0.4852169527485131,-0.06749698465044519,0.1169266056966688,0.1582796016825776,0.3353438374756577,0.01211716145130482,-0.0001695083895414307,-0.005199356548705692,-0.03354271217043531,0.247900870763555,0.3331573039803966,0.1038737911968197,0.3772029581047433,0.3996842324679444,0.3896358662200713,0.4794792455125244,0.6621471663455742,-0.01144710743065653,0.2409737504798821,-0.8816893762050106,-0.8645879462402373,-0.2678410761184934,0.1516782580735961,0.2098980078589971,0.2956680797668235,-0.002422645726705816,0.001458221919135321,-0.06086733297812345,-0.2575441370742538,0.06844933113350041,-0.1111336008990886,-0.5599353755094778,-0.1790455865904911,0.4093200637921527,0.2110698556148695,0.07421683404472137,-0.2208635296983413,0.08626558289975188,0.002221512376573036,-0.6432585497425592,-0.6982418544735921,-0.5073211425629814,0.02004403087383756,0.06802798537337426,0.292818499470514,-0.009290876973746726,-0.002254474741524942,-0.04735021155349035,-0.1110887977831736,-0.09822721337404845,-0.5670348170245575,-0.4215238340776135,0.2119538785557015,0.1161274685663253,0.04393189735654329,-0.2138268533574858,-0.05585866115441838,0.1046643596377823,-0.2848944292876972,-0.8488338389076877,-0.8711688213788834,-0.6432306746639348,0.4786343707420703,0.3166221750295141,0.2281969103082241,-0.00269449676675677,0.001869039165430246,-0.04074808474202799,-0.2627542304352093,-0.3056981861489077,-0.03107054479802882,0.3395015539250368,0.1783135315778201,-0.08287676868946008,-0.107688670903395,0.1281598449264966,0.3738040665314118,0.6226225267130385,0.5354344969185392,-0.1665054311077233,-0.5957086987086194,-0.3634630873273612,0.02606378489135398,0.04905585147868881,-0.1640683253632565,-0.001691374899108385,0.005589678483032792,-0.09690026332479654,-0.4495060517338644,-0.08924861257706644,-0.08527060429006685,0.04683887027347776,-0.1130711378929137,-0.546713183007331,0.1905913615802806,0.8000906273353333,0.36477995486031,0.5278012276066997,0.4467158121837581,-0.315523274627973,-0.2103103939130436,-0.07624364271019995,-0.2453187738539192,-0.08448762409950318,0.06351253002692786,-0.02507823377275895,-0.0149987908911237,0.0838859141071825,-0.06451157705152466,-0.04595830129849468,-0.1749009436437572,0.405067145898695,-0.06511239492587502,0.05844702324253451,0.2538205462968633,0.04191437131622124,0.07285348393848111,0.3583643849218146,0.5199947314693915,0.2435542901284651,0.05153699694897278,-0.3061515869917276,0.1971016915864017,-0.239686816671045,0.226143602018307,0.00192922644966014,0.0008738967457496793,-0.0261447086439053,-0.1984026290997752,-0.2673742080655087,-0.1808312690801207,0.2412161546539138,-0.1372864625192966,0.2544016532998676,0.3330945317914278,0.2237478472162607,0.4970096502607172,0.2985673643678358,-0.3029459084907679,0.02659095008019504,-0.2738182667030757,-0.2492891857684242,-0.1773819073703161,-0.200832153421837,0.17476474958985,0.01969489006975667,0.002483280167858157,-0.03705212057122836,-0.1727183869789282,0.1868127291713027,-0.205307115418876,0.216317914471426,0.1783985395733532,0.3134523702653194,0.4633304352721142,0.03194081609258088,-0.05760802592426161,-0.3845411848506202,-0.3268183206719099,-0.2017786523076106,-0.4830515285551586,-0.4235074696837259,-0.2928947458288952,-0.3126421264374298,0.05912934485258225,0.07718095718047782,-0.000189654867716115,0.001300192382067755,-0.2222608549176276,-0.071355904033002,0.2013589291476846,0.1885903141814343,0.2333853785711376,0.2955127762621312,0.04509117586772601,-0.1600909393990402,-0.04554988237847559,-0.1769149222854053,-0.3726578032822395,-0.2786259737445744,-0.6396084460618248,-0.2115862770505583,-0.009116996749632225,-0.3099930448333426,-0.0338461755461135,0.03032547652339099,-5.888488078955181e-05,0.0007628065002269991,-0.0468027838508618,-0.006511522566388682,0.3192125805876505,0.1387592457444608,0.06697693714388703,0.3158508544007377,0.1945767076136319,0.04960853399659036,0.01987975246697362,-0.4402939305550947,-0.7058743965781022,-0.4371826515717406,-0.1405541704973953,0.5075420710274242,0.2073233886466916,-0.1453052894518891,0.06232684851537167,0.1069691416262445,3.1442629316295e-05,-0.0002956280830513565,-0.005320277216217062,-0.1147890837373443,-0.004369485204216374,0.2109375643909087,0.4390895042395922,0.5646856884761634,0.119353748368547,-0.1893082996666936,-0.2846653211979608,-0.5286243355757274,-0.6045921588445995,-0.3313049975892454,0.2566511483565255,0.5365113924068493,0.06723179898191933,-0.1634781805760445,0.03680956972507714,0.04653348983899327,-8.19218605010109e-06,-0.0007099397950582966,0.00919892826751933,-0.09821462924910773,-0.1332108009562967,0.09684164867479404,0.2813181397780412,0.01681957833201296,-0.250709097710169,-0.2946766694000229,-0.3000298445782753,-0.5514135217683698,-0.4800997538528076,-0.2614206529016498,0.09658753369519411,0.3042575554788909,0.07297746144836416,-0.02038521148586693,0.0005001290469982749,-0.001256457352898133,-1.80272655975102e-05,0.0001099625127491338,0.006239617777493397,-0.05916121455528788,-0.1913632614823459,-0.09694361825728581,0.09732774702322575,0.05988533902667986,-0.09606423662155587,-0.05380337483767107,-0.1116096614890497,-0.3731665134468055,-0.2975877020735662,-0.02932948786593505,0.01790901925581716,0.09723375585306761,0.02001568233414873,-0.001454288973081235,-0.0004160990572487267,-0.0002546899974166397,-3.476609190765877e-05,-0.0001154259334008091,0.0005834086339100367,0.003619118335933222,-0.1627660480734281,-0.1303939035072801,-2.863189417096223e-06,-0.007819158741786394,0.004931462451083482,-0.004521273484179223,-0.02424256810396609,-0.08042750604535168,-0.1020019722312508,-0.00183539217425936,-0.0002847448563012496,-0.01022432600229209,-0.003626391935947323,-0.0001721377219444936,-0.0001625251450150208,-8.222458261687943e-05
-0.8637708422773585,7.387017073389129e-05,0.0002094085284536296,-0.0002085150348625243,-5.513006978486245e-05,-0.0001788951669099621,-0.001646937406796154,-0.0003802522838112573,-0.0005078056176368994,0.0001339741757777322,0.0001967834105918092,0.0001054804591680928,0.001691127971770889,0.005252931096830572,-0.005354566498303354,-0.01065221069318992,-7.736179790403841e-05,4.688887633329406e-05,-0.0001381166502259942,-0.0001071459414511594,0.00017234053839906,0.0001404248775063838,-0.000146513242036958,-0.0001785598395788147,0.002278313422450168,0.006442921708657678,0.007299748411579423,0.006683145492067846,0.002196985967387543,0.002972709631371841,0.004614075943577656,0.008523634145860924,-0.01384885794630319,-0.05542251352773929,0.06325101552995877,0.1227952077103368,0.002689204992169571,0.00196552663518657,0.002800438540432095,0.0006074011075779012,-0.0001956907455800227,-0.0002162970421724245,0.0003283083129473051,0.001868328932440233,-0.02629664371425188,-0.09941460194050103,-0.1986783566222506,-0.2339563991055374,-0.08020490658402567,-0.0992274911742262,-0.1354700870260741,-0.138895931966272,-0.08377182174923019,-0.1742432866512905,-0.1744898062940124,0.01445861540848322,-0.07224998369277492,-0.04987464701727948,-0.06444595406170435,-0.0005585583207127832,0.000181724013128688,8.785540129883541e-05,0.001238658581207466,0.009788275520253046,-0.1347477869964899,-0.3170757738527983,-0.3683166042243133,-0.2543184128351858,0.04118076763052211,0.06748856877658685,-0.08181753586500957,-0.08289583851091543,0.01989632988953797,0.02678960040131739,0.09406752546077927,0.004722388216376351,0.1926814587721014,-0.03315047095971362,-0.03615120756392016,-0.04370013644568026,-0.001438730053288608,-0.0001226156610879391,0.003835917108461553,0.01862087345954152,-0.1969207829420596,-0.5312973368540881,-0.5233589981295295,-0.276105935696554,-0.03518833203856857,0.5747895951333165,0.2791497688035793,0.1540162225238344,0.292513855325951,0.1818834760644252,0.2720596149918132,-0.1653794579071219,0.406719334932974,0.3221660029417997,-0.1292371724648219,-0.11389054651371,-0.001825531379334296,5.055620520665783e-05,0.007319413501892174,-0.03581324165428224,-0.2430149031509585,-0.4429866392882722,-0.5963700431381007,-0.5894036143835832,0.2140810608517895,0.7152155913473953,0.2574903279349892,0.1450806708731892,0.6282363631285829,0.1772024773487927,0.7236318472711987,0.1170150248163678,0.1157871602966277,-0.07482233324296293,-0.448126122814852,-0.1829387304048415,-0.001622040273065736,0.006219179160050333,-0.0519391858519172,-0.3009377610480306,-0.3792335952201144,-0.07584713465277897,0.2620748886137014,0.4079095400341798,0.3541580680948195,-0.06848304531500493,-0.05316438340246658,0.06673480510848424,0.271262540132279,-0.1550827930621848,0.3597532359122319,0.7147203313777204,0.4449775436086331,-0.205904181670459,-0.05546739076182401,-0.241112815614891,-0.06196886260868894,0.007787181903272927,-0.06405867278612565,-0.4855586062444155,-0.4543423057351139,-0.1093038970009405,-0.06013001802042085,0.02662004586779166,0.3969234773239599,0.1485836357531933,0.329374194439757,0.725637431582275,0.3627410321503444,1.020653256403933,0.431717659279831,0.7866632691492286,0.3866610230007529,0.3543394870354768,0.0793870342540676,-0.2489720686911492,-0.03298354121649077,0.001968320419103611,0.002807743672526128,-0.5683608428026166,-0.483574260635054,-0.1775742662310656,0.4187381728400123,0.2356741941145841,0.3991282421398933,0.4169986303499315,0.3416848681077855,0.7317217688225723,0.3929276206494201,0.5990544874397044,0.786139791067642,0.5404012249225078,0.1406545617403608,0.8407099007032542,0.2553591363474652,-0.2159751740807535,-0.03851011622524911,0.003697347413911729,-0.00331476563200359,-0.2324473351088171,-0.2668719054074449,-0.2599016950850215,0.2351343769440571,-0.227101942790393,0.6974363362443347,0.5466708574760505,0.3185426199415639,0.4083148794350653,-0.1513888096609846,-0.6593177420246912,-0.5368244068856108,0.08697671179283725,-0.1992938315689216,0.650845987047461,0.4009520529903468,-0.004044875130268845,-0.01521307998235094,-0.002601861526730201,0.07965437162864553,0.4541906794249537,0.2172591161116442,-0.0956599267238453,0.003367149122495706,-0.08525735494337608,0.3909676549688793,0.09321847026691779,-0.1013598418287441,-0.4437423131660168,-0.563410097463291,-0.6664676453164807,-0.417835031363857,-0.3777218660928086,0.06852781187150285,0.4614784837641824,0.4997271101230623,-0.2327601120319323,-0.02007560362193192,-0.00349448139440019,0.09527020068247792,0.4308405243226285,0.09655718466782522,-0.1260564197629855,0.2415562551253144,-0.3155671528579486,-0.5094441967669638,-0.6662284397947171,-0.6658468491145987,-0.1776073893914198,-0.6412945267906377,-0.3496515139643405,-0.3841497889099209,-0.3804324252170062,-0.08529129875533766,-0.1470224816313875,0.1896579135700349,-0.02498785047514616,-0.01044006828198734,-0.0001306512496766945,0.06142707269840542,0.170865089522421,0.6853407350020977,0.1980616193376289,0.1755895812647152,-0.133441507810797,-0.7784953106104466,-0.729261191002628,-0.2989619116247821,0.2035467147671358,-0.3384407642331835,-0.4905115991551905,-0.4583635364475608,0.1477808115610226,-0.4105535915407297,-0.503902154651785,0.04074345002967249,0.009389195602525286,-0.01730525379356527,-0.00432873984604171,0.08410974682675584,-0.02760868034550848,0.3270606280814017,0.0002586199989449607,-0.08139222325587839,-0.2188811772844083,-0.4433691486525809,-0.2601017754364444,-0.09666162228062357,-0.3731383041470082,-0.4230167080393933,-1.082030189301652,-0.1930762225511075,0.04040281887276728,0.03502670177847031,0.4877384757394548,0.3577047765200034,-0.1011630917768379,-0.03738019641679953,-0.003831702446060026,0.05422556720666326,-0.2298420053251376,-0.08386739983178614,0.1242123569101911,-0.0665965046142635,-0.5473693968409244,-0.4368989266610145,-0.5724436770019105,-0.1582391479382605,-0.5018515111762935,-0.3164598949544854,-0.4878915608778863,0.006989533913283732,0.008449101282430916,0.02181823210490812,-0.03367278281105097,0.1491628906029465,-0.1956957362841711,-0.02374410102186244,0.0004222271760465727,0.01933592856975354,-0.03798209599320643,0.374835277478029,0.6914382159345643,0.050392651582659,0.0524102675331366,-0.4191817762162909,-0.3258568523328366,0.05333367843070373,0.0009429857170169219,-0.01209889087951165,0.08587732423468639,0.05507803396875078,-0.316067357585018,-0.4209932655531328,-0.1793082965476084,-0.2420175480734807,-0.2581906725526694,-0.1247759346874341,0.000972209577816795,-0.008954218964333616,0.05944999667532731,0.2266905148952367,0.4061664902078707,0.4262597747338974,0.4834460150675378,0.1063395816209606,0.2461260534874798,0.3518420548229136,0.1136047965422315,-0.2015375021691949,-0.3096350573135323,-0.2378447645355598,-0.2809530502032108,-0.2140826773587321,-0.05105379907519036,-0.1980079001772948,-0.1187384461913636,-0.04495228955002907,0.0006988114028162612,-0.007087470851063451,-0.0006043883867584969,-0.02697271565380628,0.4531130665817769,0.6544586325459778,0.8938285866194512,0.4174251567769388,0.2110398200611619,0.1460778306016961,0.1623634709822328,-0.0210378441040724,-0.2421780039870313,-0.3389042311292667,-0.2484377845979296,-0.1292488896992877,-0.09566269343350171,-0.0194110657229733,-0.02693471878115954,0.005329297936011354,-8.215112392345412e-05,0.0002273365366574541,-0.0005418174711652426,0.008240339741697545,0.05438097872064568,0.1255651524725158,0.3259028143461371,0.2805544236783661,0.05556410797747244,-0.06549396400902692,-0.1147628488883492,-0.4464792821373361,-0.3748220730316423,-0.0621138057857176,0.0002493973222171391,0.01363778135195639,0.003871302893562831,0.002574161121887198,0.002127972519409652,8.385424082741324e-05,0.0002090201697422787,-0.0001419310476005249,-0.0002977721472016103,0.002253280424866939,0.03119104498041506,0.04568098463754728,0.03845119400543216,0.0006745798521123879,0.002736725888293199,-0.02117606504586529,-0.03031603301195807,-0.06423111423823961,-0.02825134625951114,0.003899584847118249,0.001219585221366456,0.005249253922615307,0.00102303109450861,-0.0004933106282854515,8.580347966375676e-05,-0.0001165784561469906
0.1933486388508774,3.963310619503982e-05,-0.0001120415811737679,0.0001768799646978587,-0.0001679249886583296,-5.187627886500029e-05,3.579898370990493e-05,-9.088365619495744e-06,0.0006794640583362588,0.001158927870624957,0.006117519088982973,0.002185882896363006,-0.0006968556972892315,6.935186430409283e-05,0.000181395737314679,0.0004085231478501843,5.553297414023027e-05,-1.474567283180173e-05,8.63663323312594e-06,-0.0001394031591909877,-0.0001800505893320498,0.0001014642419743588,-0.0001926440467757543,-0.0001116178578593629,-0.0009546003933816614,-0.0003172084057049094,6.225016383663495e-05,-0.001556483803674063,0.006829681063702128,0.01961419192338901,0.02746200919256282,0.01900319459817179,0.01154953407129035,0.009337560429834104,0.006511979866900811,-0.0004365934167429581,-0.001637363233012148,0.00156868658070267,0.0009217800068778797,-8.023147646096005e-05,-0.0001196496508893596,8.037596171385439e-05,0.0001990715419991791,-0.000935941732184686,0.007429063062657075,-0.009028466843816474,-0.0757642700681757,0.06887737710904886,0.1725756420374308,0.2857389997601372,-0.1359783520570331,-0.2717395709210791,-0.1990263774809429,-0.150976968328083,-0.1276172032848728,-0.01244716143015882,-0.0122880892827986,-0.05309042239557626,-0.03112726121773993,0.001691818989355108,-0.0002873714477722521,2.591425121670719e-05,-0.0005870709515772361,0.0051086153836739,0.03970047770231951,0.004875618268517261,0.01212111772769024,0.23654243573113,0.3446102626979975,0.1837923823904408,0.03393954195851206,0.04695449541979802,-0.1816243091463738,-0.3557168819049061,-0.301271644544951,-0.1868391453691454,-0.04327065328178185,-0.07068540722668623,-0.06330610812728098,0.004438580482273758,0.001921996041471873,-0.0007898125752508837,-0.002949327215931797,0.01268790036774604,-0.03387246847607158,-0.1272027742159966,-0.1276890932741956,-0.02103625788888405,-0.09503805357238454,-0.2930807802600697,0.3479525922688453,0.6177550070468036,0.09250384777289475,-0.3730379251434521,-0.3894414900669998,-0.5891610852248929,-0.636297452329912,-0.3033108348290781,-0.1100243218298435,-0.1490027442390619,-0.04279094318734762,0.006276158217507135,0.06040028677999156,8.84494497183776e-05,-0.06954144759977446,-0.2568142166507127,-0.8109071663116215,0.09449038716101156,0.5876724511480996,0.529108207642115,0.4035331369234078,0.4250727574960332,0.1087959383761215,0.5550895447339881,-0.2668706859051471,-0.6890596670233533,-0.6699764266796676,-0.3186950866934992,-0.3579864812125521,-0.2874096912874564,-0.06073872932982813,0.04107328648014479,0.1799803454989434,-0.1012394855461381,-0.03660386202213414,0.3614843576701356,-0.128276631904674,-0.6223268846173801,0.2281415679936541,0.8203111557329172,0.3798085386593101,0.4200708468962411,0.02204421082460032,0.5326395456944555,0.2903124489943812,-0.08283689954051637,-0.08172740719408701,0.01489680277478228,-0.3096895811796873,-0.3428434847383366,-0.03067060668583477,0.02965823903198353,0.09023218051488821,-0.2102431775094814,0.2208862705276204,0.1420047681957776,-0.8852259581828961,-0.9878737841076136,0.06564404270251857,0.4246565284533879,0.9582526571473892,0.3836522999484841,-0.07463054927936974,-0.01209868831509365,0.2144381866658559,-0.295175863504231,-0.005225597588605505,0.4437336098265146,-0.1312968379582947,-0.2917846696843447,-0.01398867385878174,-0.001120343799270324,-0.05444322968327132,-0.5517296256433969,-0.2699712232905832,-0.01312335368022539,-1.251492529145218,-0.6818335400153408,0.1068128883898341,0.1205783453923528,0.486227596159701,0.5479523792485854,0.1337563046667516,0.4465296761377663,0.3976399740218795,-0.06004375368591471,-0.1236499665154392,0.08248655629406533,0.03357316218276829,-0.3974055324381837,-0.03613133073650955,0.01152409727517201,-0.1815006376383182,-0.7235008052000662,-0.6859437490029825,0.04309959399562647,-0.9466747163829814,-0.912312204161108,0.403250696098559,1.059878884648225,0.2308303512191251,-0.1992229743616674,-0.5541772508400141,0.2383085819842775,0.06175262463677631,0.2058104950528972,0.1244370896643676,-0.4588303739472904,-0.5151343245615716,-0.5548786047525186,-0.01856657033215575,-0.01058895660873339,-0.04148107439983721,-0.3040372012070558,-0.4263342675045199,-0.06710816758237573,-1.082243258276655,-0.8531155795730312,0.4761433576339322,0.1514205303057265,-0.538576576119335,-0.08707202315029612,-0.2068404664523223,0.04414920929749549,0.2937273871067486,0.1588303697041158,0.1139452558043281,-0.4840149954135886,-0.1562662628307383,-0.2570874694583982,-0.1925873462911379,-0.05962836746460667,-0.1232992983515705,-0.3901314133615181,-0.2937294997492588,-0.3811842466521984,-1.64162734445736,-0.2526735083203704,0.04586837295944137,0.02093522705688499,0.0001714377185415106,0.5086036141895386,0.3385722038421601,0.0877643633383527,0.4927910573278183,0.666943109332354,0.467547761839052,-0.3025891532531811,-0.221044363639473,-0.3905967364828939,-0.07333041720832066,-0.01275025608863765,-0.01523809763552427,-0.183655268321624,-0.2238402874618302,-0.3655415232978123,-0.9042436346886354,-0.8348477652287282,0.1173864110652412,0.3144807432299823,0.5951993538020662,0.009439357252920911,-0.02700649028422432,0.3352059428722862,-0.0640967791116873,0.321814707259422,0.4160347279956575,-0.4392638623335478,-0.8626869750565103,-1.027889268990484,-0.01359174003228373,-0.00962942354750358,0.1395206704550846,0.2744622542062135,-0.2739923210717504,-0.5372441718710638,-0.5043926179117416,-0.4615260385366609,0.3557180700162999,-0.03675815051608104,-0.007429259497959519,0.2166519290795402,0.1374003793114489,0.2891793145716146,-0.1281629188717238,-0.3162308754382221,0.1512139400992547,-0.04752854219396487,-0.5897057446089689,-0.5061201036992821,0.01432111710779862,0.0005226757557094143,0.07236629170390237,0.1254238131108147,0.3956068017639391,0.03167868212500841,-0.6714904326463087,-0.4231242224877588,0.02039385856112142,-0.580351888602944,0.4355090823132423,0.6220156818323417,-0.08048778125629433,0.1317412297022416,-0.08304196874278712,-0.2416937110853918,-0.01065148830040091,0.09088798490418235,-0.1673548871452651,-0.07998463044486254,-0.0159212369975709,0.0002216892132529744,0.02961032511916781,-0.2181797769222712,0.05179877474777494,-0.03981749419666546,-0.2635172056933434,0.001769512674667589,-0.09943137916819417,-0.3496271126521717,0.3325026243751166,0.4239438097452379,-0.172997640694183,-0.5501587790635277,-0.8920191384927858,-0.3666900995284466,-0.2357809315343173,-0.1213890143533638,-0.1213726181397271,-0.06759426038008344,0.006973189621354463,-0.0004631544213823124,0.004867667868036294,-0.2313056433807852,0.0937534468458152,0.3740268003685295,-0.07588364657980143,-0.221239087685623,-0.1953040893815428,0.06603117698037794,0.3838096343164641,0.4058124027936474,0.2258768790574802,-0.1053011646312482,-0.8196113625962899,-0.2921628080053657,-0.3089472625940919,-0.1390526360063012,-0.07995975395279485,0.06074205331953761,-0.004576054943622202,0.0001837521061548411,0.002472933414201984,-0.1630053815324313,-0.06127046177200559,0.3005683458897127,0.3265053041636365,-0.1576043833921127,-0.170033680341711,-0.04355638052048487,0.3301455394331408,-0.1157053761794288,-0.4671126051930213,-0.1159634993503963,-0.1908594481135295,-0.1290643407545774,-0.099494184978968,0.04180235310957016,0.05958186113390369,0.03813142187026033,-0.004202345949972544,-0.0001579707083626651,0.0004345468481980312,0.0007545316288845446,-0.002986794158936427,0.1105108613758595,0.1146737017685934,-0.01684003316767843,-0.0923715282991316,-0.1388841772021295,0.02712540328988869,-0.07065876143741411,-0.7238108485108263,-0.5268393964797138,-0.03822509887809292,-0.001674791618065576,-0.002920903797953849,-0.002340414065137037,-0.001656965320672351,-0.002295231807798278,0.0001454638432050287,-5.079345651791734e-05,-0.0001726295599944045,-0.0002139296810163363,0.002537184137367594,0.03967798790570121,0.02485772381069257,-0.001704406777956352,0.005846472333005505,0.002411700696046114,-0.004897278728370732,-0.07383168158184486,-0.1522734222982869,-0.1267620365976388,-0.01492035296911539,-0.0002279953026970256,-0.001923848587735484,-0.0008043971044888747,9.276759435398016e-05,-8.008740348744099e-05,7.157897421725114e-05
-0.2576514240428744,0.0001593201116659997,0.0001441683614041777,-4.189215926914713e-05,0.0001292983380571736,-0.0002713528739563366,-0.004585416767476403,-1.279825097926461e-05,-0.005197708624187847,-0.002739131914366048,-0.003442808400068579,-0.0009272219314715096,0.0002764109035481677,0.0004470657420023104,-0.006127422668304816,-0.01045914672587785,-0.0002371223647532651,0.0001041669849289072,-0.0001566351053690855,0.0001237277707944235,3.953278712867973e-06,7.607602047035324e-05,-7.926358680973979e-05,0.0001380756819304479,0.001375813385654472,0.005744379351089033,0.02446935995329379,0.01262603946011069,0.002942868153791966,0.01067158350436927,0.01572546745317631,-0.002224269973919265,-0.007821755411998609,-0.01409123970853955,0.0678780005775827,0.117352899272057,0.003022893556368163,-0.001234386783572911,-0.0002108309841906587,-0.0001438743859492619,-0.0003178400413075617,0.0001180621253377907,0.0002364531183404627,0.003338106305366512,-0.03222208982822061,-0.1178265514666917,-0.04506832403444318,-0.1156169202458728,-0.06319275237375152,0.1613277983995273,0.1002367705246645,0.05442352494777787,0.1187421810711737,0.0712743692071527,0.1168006679629721,0.1320444648190252,-0.04651657701226378,-0.0256710361447449,-0.003177678125366651,0.001427267075690737,0.0007556362497994412,-0.0001296822326946402,0.0008627780696227959,0.003119344987142189,-0.1369078744645418,-0.1975058099926377,0.01342511848862032,-0.1625117358653713,0.1320182306975561,0.4269625054925833,0.1890570840093627,0.1579520832315457,0.2822939289365894,0.3560714972526994,0.1566395358075243,0.09670743659004108,0.1313934207679672,0.008829289296398089,0.04394135822250676,0.01807511121401492,0.009710993181886627,0.000367345718871115,0.002063850978809062,0.04030400025916981,-0.2057073368596406,-0.3885245810373127,0.1487999900397219,-0.1149428450767515,-0.1405772102169135,0.2154498431711704,0.2569787097465348,0.0279756695117446,0.1909676074352976,0.5222723657786849,0.09762458916261621,0.1951683742446644,0.3641337228774647,0.194625487437884,0.02830874130648172,0.04757594031854384,0.03009904103124947,-0.004524740927958122,-0.02882993120865278,0.09932342149566939,-0.2719314529732293,-0.1404813284971214,0.3965784299132772,0.04451509428511159,0.1650850326226785,0.1787687727446767,-0.2356184629416558,-0.2313803439772259,-0.3161861433900586,-0.06443545396969186,0.7652346755802497,0.6974445850046886,-0.03662166761074324,0.2017302675326357,0.08595096793175182,0.07910719152803865,0.06106545177458853,-0.02736374586848647,-0.06713741224987599,0.200969617582951,0.1705569435062572,0.03253033482045536,0.3088418132630706,0.3425366786730316,0.2901953696998797,-0.2549446218262626,-0.311280918066885,-0.3051763803014832,-0.7662569003579064,-0.9622264585642605,0.002616412464854701,0.4419009993260156,-0.01325875806186232,0.024476193212344,0.05879727266543346,0.01907821283030591,0.04832259238757811,-0.01640317046509548,-0.04375370011583469,0.009303610658965336,0.151965295779926,-0.4493223047150647,-0.08167656115866663,0.2608100324404731,0.4782409462279014,-0.3706811970276138,-0.06317633758525631,0.2505791076146028,0.2069807883470139,-0.02987429060474136,-0.6222941440695622,-0.06503149004755762,0.06318401118548422,0.04904706720953748,-0.2369923897321271,0.07392457582596981,0.0271686478476508,0.0001745843389544811,0.04746276418646066,-0.07115083861494798,0.1092791385162828,-0.001048399376758012,0.1297219626801125,0.4120386063096446,-0.1343135278185627,-0.5840783843798896,0.2262855935020567,0.2859742074891072,-0.4399737442528323,-0.4151322395673085,-0.3708099822404353,0.03473527927464654,0.1435119669193661,0.3418478748439341,0.01129642775545124,0.3615119455365516,0.006816527940421833,-0.006157983693310132,0.041990588528074,-0.03938563328406242,0.3139064890801587,0.1197547833316738,0.2170562052077297,-0.2708654202690053,-0.7123055817633457,-0.9798656610694083,0.235313075823464,0.2491612087717431,-0.01397520254545194,-0.3621109478560448,-0.2789855506003218,0.228777673781572,0.3659437571918522,-0.1399917298352304,-0.4189706748534843,0.1662923108601895,-0.007853458298944559,0.006501194135299516,-0.02365193929344189,-0.3687926363330082,0.4621947371623529,0.3717761627692144,-0.203564770712433,-0.04158150401109211,-0.6800348002168247,-0.3709817640759146,0.1074384108572775,-0.122392118823727,-0.1297393914513682,0.07152020772457357,0.2853075707408473,-0.1097197343296207,-0.2010182286052103,-0.1505699187875585,0.2419477582498034,-0.06233814485802117,-0.04973216104840174,0.03370964753588714,0.03123921392162988,-0.2952042525494937,0.1057244063611039,0.2978180316996751,0.496141923403772,-0.8571626160261278,-0.425225441830261,1.058453598937982,0.2561193146374104,-0.2123957170492259,-0.3639050821615912,0.3992788880856847,0.5506987095820384,-0.3445070049512517,-0.4320374213785274,0.07958485999532186,0.3308088769461527,0.1624932191624671,-0.04630050886032736,0.0119132635813887,-0.03945750617581287,-0.06962721340282735,0.5827558219343109,0.21042915042737,0.1868344738119103,-0.1812481676898305,0.2382335824449271,0.5617080697829792,-0.5279120099980177,-0.1241092811611097,0.1910996572718306,0.2390823697608224,0.2337958770738098,0.1507037339564017,0.05737461887179745,-0.114641176322395,0.06216037943293371,0.388539727377334,0.005182437727266863,0.004782477494650117,-0.08135894573071729,-0.3658170406071857,0.1299584608873925,0.1002584574607891,-0.005378291123139957,0.6716868169167225,0.9191914324783818,0.2554164420880308,-0.2333194190590499,-0.1640677382931669,0.04398975464335329,0.1228450059370067,0.274122102378096,-0.05926015096304191,-0.2111806104758183,-0.3614993185779305,-0.03867421060632076,0.04413235710255416,-0.03285183026268407,-0.004055780518445485,-0.08355421225614343,-0.1509617931402253,0.1743385624402611,0.4306655870434823,0.7407554044745607,0.8325450682985635,0.6901623448903987,-0.004296530741834359,-0.3731028028165566,0.1154672110061611,0.4707159970728335,-0.1007978648890148,-0.3688260206115097,-0.05401461861321108,0.007961361461241788,-0.05775098968535037,0.283970433956359,-0.0591597993494356,-0.04526894968512848,0.0009673305124160391,-0.05329821184025875,0.05365584782278171,0.2927513720330392,0.6319599733046988,0.6872267502999797,0.8856746154213245,0.3770484028060215,-0.4144960918610953,-0.2035309657140048,-0.2854500698433644,0.08210526122079696,0.0801730263272651,0.06340902172630725,-0.3176505049759406,0.1693924185693333,0.2330626097503672,0.07533764909335133,-0.1005713299816949,0.04550588403849735,0.0006553668598074959,-0.005042176030483548,0.0187021209136346,0.01903683735172669,0.2902210874952114,0.4198965642410601,0.4395758316430456,0.3028926200362991,-0.1775907874213448,-0.1993073251038715,-0.1272285307996463,0.1013469770241502,0.5001458155227747,0.3377112076150238,-0.1841046443361623,0.1097655871136977,0.002888839943883885,-0.09595638588922407,-0.06297953682232243,0.0145390241153795,-0.0001630086647281212,-0.0008632399989051394,0.07364914905025215,0.04768596457459968,0.09189368827863192,0.3486678153195481,0.4952948564437482,0.1778615641617779,-0.1573975092523359,-0.2747828607513189,0.2333057392681075,0.7366587761247019,0.874447319309488,0.4930217554696258,-0.005247621204972686,0.01817019620411505,-0.00819310827422356,0.00866448396364637,-0.002861592904417035,-0.001582081487647902,-0.0001531035024417778,-0.00181158111516858,0.01246789918615023,0.06430267760163268,0.153017297574698,0.1960789731196713,0.1904247827268222,0.1798699266406956,0.1167801748654587,-0.007245048465850996,0.02338709613053293,0.2770437485759872,0.2955188194444656,0.1184343958628199,-0.02586403338899646,-0.1703147028996748,-0.03873193537640459,0.005867177879175084,0.0004969789101999934,0.0001079037534775171,0.0001835399427765234,0.0001280841992724277,-0.00123426914103085,-0.00700018134223725,-0.001663396984569767,0.01514334006429284,0.0462270810592496,0.009881924766976002,0.01263230246674953,0.0007487777168075667,0.02384557736301472,0.05552278842148992,0.06091457449882545,-0.0117730951034203,0.002094954580062544,0.0172997484032937,0.004050323906584609,-0.0003107143065769634,6.679220205639732e-05,6.257249799438908e-05
0.4520061077584306,-0.0001828991934813915,-4.97506740604826e-05,0.0001715269080567271,6.350404398044122e-05,-0.0001562111822482022,4.300135183693444e-05,-0.005380317196292251,0.01434518055359059,0.0135006051886535,0.02887171297703701,0.008655861863693395,-0.001192256082357324,0.002141426937521601,0.007524290350365489,0.001838589477469185,-0.0002278661843484927,0.0001930003275357199,0.0002083057431530571,0.0001619396313043975,0.0001651001759052896,-5.525550918433995e-05,-0.0001325369300456582,-1.055401807350971e-06,-9.128910369964579e-05,-0.00122980222618551,0.01713492571806145,-0.03556732969605346,-0.2139790044596871,-0.06160567842679646,0.005574642714064246,0.04740121539340115,0.01010275681967878,-0.01769006066653445,-0.08350472980196434,-0.02639801414275681,0.00121080357902842,-4.292806020011795e-05,0.004295730750900465,0.0009517001353762802,0.0002089824224683051,-0.0001759648377591721,-6.275373605933343e-05,0.00192959716315774,-0.003240615688260209,-0.01133560097682042,0.001085559539721597,-0.03648273153809534,-0.5257854729564306,-0.4771813823210247,-0.07913736569717822,0.07005906913229971,-0.05944969382682937,-0.1786282132506059,-0.2370142562479396,-0.01094972018042903,0.1401616820325776,-0.01145387876357085,-0.08277121133680745,0.001718979862263647,-0.002733309878641286,-0.0001842942059365347,0.0001856868089290664,-0.005988289188314253,0.009418747262280041,0.135001007745397,-0.1859766273945829,-0.04085243939008679,-0.2479407889034372,0.07654898467950147,0.2224339308919246,-0.05411184113643609,-0.125501349304396,-0.1482116164549417,-0.129767733717251,0.1189186431082742,-0.01812394579632852,-0.1862714822056927,-0.3882473622272678,-0.09657196527828081,-0.01100435005369682,-2.290250054454583e-05,0.002046320591608797,-0.02967553349383049,-0.02965288046878775,-0.1240073507369526,-0.6961954009503369,-0.03894803647906642,-0.2853513678642611,-0.003603591502888065,-0.01611126438628916,-0.08890519232422714,-0.41037526808789,0.136302260975109,0.7000209339979746,0.1993074032969611,0.4181692614086623,-0.09190767965902841,-0.5341517680943075,-0.3457185390640922,0.00561630771082157,-0.001155741385631274,-0.005049421499984498,0.07767163349361546,0.053528217195545,-0.05546216636214281,0.1881651825837507,0.1781650929802956,-0.06043190099371112,0.1101544808703106,0.1649352122161622,0.2682109262359221,0.4014223389735501,0.2280071598670813,0.5276348401591487,-0.07358146088292569,0.1128492534049615,0.156262346935169,-0.7385553042343702,-0.5161141085841247,-0.01497812560760516,-0.004840965932570059,0.01501366198633553,0.3309344208845948,0.2845357162409241,0.03922978171447778,0.08752648525077301,-0.4115557284009069,-0.1492305588861415,-0.08159283930100948,0.1872172553377955,0.1189401898410704,0.333852652347075,0.1574604203054007,0.3120898514023421,-0.1414363620707522,-0.4062187924731598,0.3059575339384362,-0.2845167622916452,-0.5548383104314843,-0.03017749278987528,-0.006936546321538208,-0.1044680144694011,0.1088605570200799,0.02986734853242799,-0.1710634719305993,-0.0489758913325184,0.2111095468356529,-0.01309619083995162,0.1360470795765924,0.1412796988621118,-0.4676592478458433,-0.06539472957063837,-0.4033753536073309,0.1742478977341057,0.2462865492656839,0.2004937322189874,0.2788538247240671,-0.416261272994732,-0.8362948367641239,0.01783333500207147,-0.02043701042812345,-0.1491902121299289,-0.02150716647013297,0.1249073092037268,-0.5690886603300288,-0.2389017432560658,-0.07809922227978559,0.02313723301290615,0.1865990080787068,0.3778731960071899,0.5543980157568523,0.5059855165695464,-0.3962111837343575,-0.2680104676664252,0.5301168196440561,-0.4144833278222335,0.2511876055998407,-0.6205911609315773,-1.130061138068776,0.02377353063333041,-0.02331868249914578,-0.1607997256443128,-0.2429291749388808,0.337608558372565,-0.736774000936264,-0.7783264059251309,0.163787333467088,0.02875707635164404,-0.3772102143007473,0.4594585268909298,0.1196035950668904,0.115391954933721,0.1925969753878974,0.3385483539808729,-0.1402346168135986,-0.4575745961598741,0.08225662955333889,0.121367102255677,-0.949953573853824,-0.01653245849301407,-0.003534633037562023,-0.3747175061642029,-0.3136936465622966,0.3583991040180287,-0.3877517764051938,-0.638752597626097,-0.09831865798488811,-0.06010417510239222,-0.2742740599388281,0.3687186504984081,0.02659727374250104,0.84356368491786,0.3368648733905481,0.5430403471456046,0.3127414823401656,-0.3344620967593231,-0.04517196747689024,0.1745322618042931,-0.6226641201845081,-0.1478796380661388,-0.01657108926644422,-0.1102908615802196,-0.3161215293879161,0.5343233836554409,-0.1239120649075535,-0.6147189172172908,-0.1992482249829174,0.475145566411745,-0.1308933685479425,-0.4897478671932269,-0.230743581223546,0.2501444103800482,0.08511849514511872,0.198961357230916,0.1942389798313482,-0.467897276235808,0.248456887874184,-0.1996922882495011,-0.7030605679488608,-0.1019164957289372,0.005413086453303845,-0.1880413263016268,-0.7700822443587008,0.5077661193130079,-0.3135506848537148,-0.7771592629176821,0.6129046493320621,0.6983659248198165,-0.7453117660887284,-0.08497751492610038,-0.06003261603105953,-0.3805119592583947,-0.07203317491150614,-0.5434086457796009,0.2976849973312243,0.2453062491025379,1.156447692772429,0.2617791430529505,-0.8138948906803817,-0.2097105614452026,0.008741092637843693,-0.2132375931467963,-0.7009905379742072,-0.3588016271936509,-0.4769922251385568,0.275078164005034,1.028737210961506,-0.1977354417309482,-0.4502303136508933,0.1399484298386612,-0.2292538252584632,-0.1577902016434301,-0.4235277656885148,-0.3211544259603736,-0.1173158009547189,-0.230831343923116,0.59014873097579,0.2177217648900849,-0.5381785278548236,-0.1616567526188861,0.001539202510818686,-0.1520874088746202,-0.4246388270671742,-0.1701930159031826,0.03821318418662172,0.06435985264273145,0.2574823361115299,-0.1479379037028934,-0.4067571928910381,0.02929404346743112,-0.7108336459364323,-0.04175173352166486,-0.0626668395709007,0.1577437899465081,0.02105838776835713,0.1025987126195987,0.2914276327263742,0.204369913440283,-0.3133707794830761,-0.09895852018556414,0.004844464900204275,-0.1058096374727341,-0.07994880312528237,-0.1679063990701226,0.2657119491636275,0.8058775733193506,0.2765840164557061,0.3016752823609027,-0.04835370806905869,-0.2465938539550035,-0.5108601345012906,-0.1709461178381902,0.1229497196476036,-0.1300069087696654,0.1309574047464748,0.5011142355868844,0.4034404497398834,-0.2270779009740491,-0.3685513283639035,-0.1889490408683645,0.001882248297566367,-0.0243824021157726,0.0973851855205429,-0.0921936323622352,0.2279078068031597,0.887224430301234,0.3106823498383404,0.06373025072291508,-0.1988489326636304,-0.2351061360087887,-0.2078980729652107,-0.2932424249848798,-0.1031461914827874,-0.2777267738727919,0.4893689979719473,0.7583613455318521,0.3991507290493068,-0.1151197419276708,-0.09932312591372632,-0.04969694689554844,-3.578366616473804e-05,-0.001743132260382225,0.1100501936698275,0.1016744039972073,0.2604161287766827,0.6129846268470753,0.4645576646806649,0.08537047336379978,-0.03739554994067505,-0.001205003074034058,-0.06296912884744313,0.3390834897228349,0.4617416031924431,-0.07010250142540041,0.3452126084869416,0.3875719028901293,0.1079352428175925,-0.01009288844933648,0.0003215373586185514,0.00646005488800089,5.792899566079508e-05,0.0001138203905119916,-0.002000536135198551,-0.007899560092034833,0.1287380096878108,0.3354377972381584,0.1711301905804014,0.08376930096260837,0.1543783839527027,0.08800543163378996,-0.03187551896715599,0.2708567796919679,0.2208933703631186,0.1106635607416619,0.1146025151052507,0.2112267311336331,0.04606111545628952,-0.005201417000769556,0.0005692134370177133,-8.756292390131307e-05,-6.238816141822919e-05,-5.441372752257559e-05,0.0001762779307759574,-0.003663410080174666,0.0381121817700779,0.03432063923060222,-0.01310689429112069,-0.009156537925665139,0.01314265406775955,0.02748565681141059,0.02785791512272998,0.0475566977670979,0.007356073255596965,0.02868058511609768,0.01029470828616156,-0.014585972280267,-0.003852775406945085,0.0004961210369886762,-0.0002224682800320263,0.0002132000815560182
0.5345034093945019,-0.0001338444764411242,5.739994194966134e-06,2.881092127213371e-05,-2.926359361442869e-06,-0.0001926110559613755,-2.016705115872732e-06,-0.008093189071870099,-0.01006993835850637,-0.001508662646253329,0.0008276587057988743,0.0002803620273250601,-6.533297396335078e-05,0.0001152926953005591,0.0001766081390787167,0.001533897250434624,0.001304607487498857,-8.357041349299546e-05,-0.0001818837831863375,-2.288663640041634e-05,-2.864933620228669e-05,8.491116933550616e-05,-9.847206947560371e-05,-2.895517772136771e-05,0.0005388807638937674,0.0003347732973462385,-0.005323676494692745,-0.00312885787214861,-0.006130058258838452,-0.01198469852253586,-0.02128424309403953,-0.00789282140076931,-0.005371719919229502,-0.004295580892093119,-0.001898676928940953,-0.01341391154196198,-0.01273436424467699,0.001254290830938735,-0.000988640543170292,2.441171265076936e-05,0.0001380074309956581,-1.472827542891338e-05,9.441845749858817e-05,-0.0003375659319104508,-0.000742841105931622,-0.003844779485670099,-0.02816936526951024,0.01931286537571734,-0.03391311568057776,-0.1820123379699266,0.08366732604971434,0.1459669411052868,0.07449913849163783,0.04464350723398689,0.05832504810329338,-0.04793155016428191,-0.0774244528277562,-0.02430663204953264,-0.01501771353631332,0.004777627675380915,0.002684011831984956,-0.0001251824636863459,0.0001954178772304105,0.00112995026811459,-0.02015950955158259,-0.07684312137094333,-0.1750580916394616,-0.1232254406569116,-0.3157153819463183,-0.1746641923547746,0.160314400654546,0.2887921305773963,0.2799253099594046,0.3048237590384977,0.2021189736293235,0.02694592510796479,-0.06952453172226342,0.1370123331764365,0.2202331597922552,-0.03466060059658084,-0.01791654788181874,0.0001682453022190917,0.0003590273144377053,-0.003577430337056463,-0.02802669619635962,-0.07013416207384282,-0.1580817632970067,-0.09754567992213194,0.06758007944738771,0.3099591534800458,0.3780326854892385,0.5997396641625099,0.3814769238491429,-0.05331475125139041,0.3750204619252166,0.3532965554159925,-0.1558763113441438,-0.0283387804065048,0.1921851117406031,-0.0432460139277728,-0.0001077402416567118,0.0002789047853259885,0.0008219558363810991,-0.01128223194450084,-0.1393292056619294,-0.2117801082818218,-0.02577171152292767,-0.3189985767780367,-0.2553753683777933,-0.2703233167293443,0.5531513254167337,0.9141060881238272,0.6860864563201147,-0.2562003087910358,0.3643993370045404,0.3546870642699392,-0.08420153669471782,-0.3296511237792827,-0.03589595166103451,-0.01772692806071701,0.03401291714468394,0.0001907729880594307,-0.0005269522509380452,0.02125138523260817,-0.1935651507699992,-0.1708974087145481,-0.2246694068702572,-0.3187440836154572,-0.1511597954257465,-0.214865121804312,0.6886570023184989,0.8709356189359108,0.4839894632331262,-0.3759216550625318,0.003155121015466653,0.009192539591780834,-0.3242110855295411,-0.2806600173318653,0.3287784661869584,0.05931519146510811,0.0008661475782026295,4.127037007257231e-05,-2.065723893014962e-05,0.1189449010345078,-0.118662680355286,-0.2634280910765196,-0.7828476681373757,-0.5583502878484374,-0.4187069335637538,0.1368604904537167,0.9002067025622413,1.021295500602455,0.1452384098832414,-0.05755976199568575,-0.126735385576274,-0.2256247871721461,-0.008235012044160139,0.06547615579083033,0.3648021725218398,0.0959712085572739,-0.1122882340211671,0.003103639353006901,-0.03473217484631253,0.1343964954397082,0.03955164874439727,0.08783079584662526,-0.1959118387042976,-0.3489101529858097,-0.1054865923614736,0.5677549439254602,1.327476525250378,0.6425137127031465,-0.3985766921274904,0.06949937689434965,-0.1234605977174799,-0.4060478023733957,-0.3240537809043199,0.02010195001986703,0.08121393590878796,-0.1093713253735768,-0.1678208277074049,0.001909090930993556,-0.0306425727505229,0.1247446215914287,0.04972949588142158,0.6389096963106253,0.3817884743392818,-0.2360539480711222,0.414976237144878,1.042442823679988,0.9503487016189388,0.3154345915263304,-0.4390819547031952,-0.3453759711029519,-0.3343201571938969,-0.7014783205562025,-0.06360985294852865,0.01535013691986207,0.04174256379236473,0.03569908597419288,-0.1420375357288465,-0.0007642945334839652,0.006270729496268146,0.2748282848206578,0.1234143234143896,0.4187700578705527,0.4740816402936703,-0.4080720532728362,-0.1273624723178478,-0.003641830317541597,0.6299093111637508,0.06793992506743288,-0.2841109873415242,-0.1000905814290328,-0.05656226703660211,-0.4467888484776382,0.08432569624545104,-0.1079409402304105,0.1116455561579917,0.3487069298891133,0.04358131913053035,-0.004782922357604179,-0.008437424717455453,0.3141402426270181,0.07216629877672451,-0.1153832979196845,0.1994111334782589,-0.4854090292389686,-1.022684717912553,-0.6361344510396578,0.1961636745162304,0.2714807046029258,0.3478274243518755,0.3925027417660322,0.5121380425544768,-0.02868140295237871,-0.637721889179546,-0.6065990831569381,0.08563017877828503,0.01341016871969239,-0.007466727458191841,-0.002490816126495462,0.006089342841354261,0.1301705145907598,0.1240966377436789,0.08343985952726275,-0.1545559606407646,-0.3017634441238529,-0.160957367465184,-0.05741983369310228,-0.03815742846851985,0.03759523979122265,-0.364410196412776,0.322478804181538,0.7490455343391331,0.6690767408356001,-0.03690695669743171,-0.3684908788893452,-0.07577698303295352,-0.1507927851533048,-0.1156674438286084,-0.001620910970981409,0.0252589763741905,0.08425312225404488,0.1342331400765211,0.03912459639958129,-0.1930857032370634,-0.2039294307326691,0.08130673680304761,-0.01336847159108422,0.1771293436419783,-0.2594470469588048,-0.4806406594124872,0.1962991393231933,0.6657777966572653,0.6388749115976395,0.2261691550701702,-0.1562160629790161,-0.2275192312985931,-0.3838215737660413,-0.07601601031118729,-0.001150178428860818,0.01093246159077336,0.0468709232657747,0.2325062616561544,0.515033806071945,0.09562860309165523,-0.1971829606050013,-0.3535524278801723,0.133968133099341,0.2187857389940178,-0.3473410255971445,-0.1441033620764852,0.6088179744894984,0.6753332884952277,0.3745690044551158,0.3858311430082184,0.05586978059946417,-0.1816017367590795,-0.09458130011399299,-0.01486522659416491,-0.0002422860170128393,0.0005313946609698671,0.0123788372098452,0.05725474241757778,0.3765841628509893,0.2957563971560878,0.02643995578141376,0.0003592611562511166,0.2857747369773411,0.1022784184443451,-0.3471048573658265,0.1289752293643312,0.3330462357812943,0.3369689885200012,0.4253167919271922,0.4228433773190481,0.1440822293046963,0.02430796988731577,0.1567812952538992,0.01072819293869619,0.0006494595473730329,-0.005991904281332643,-0.02424592969165521,-0.1026681724047004,-0.02011975886694881,0.2190496453160264,0.3856424232289994,0.2131387624934241,0.2566587685029798,-0.1989150094570392,-0.3327409511828032,0.2937537914801905,0.2341389777377821,0.3458146759527643,0.3387472570960449,0.1588282991931583,0.09166440318581894,0.07689560252815465,0.04780453199948127,0.006704805399933838,0.0006012200956142169,-0.005507239493314229,-0.007165737324144061,-0.06031801714602657,0.2112415286009864,0.3569272937241094,0.4181551199046263,0.03650245363964797,0.06039219465385923,-0.1704390327095243,-0.1121782214727304,0.2812282887988042,0.2448497183972702,0.1649871176804725,0.1688815804131259,0.008085202434961643,-0.01467777326501031,0.005693495631688611,0.004829019587594863,0.0008779921584194176,-0.0001455708272211647,0.0005165798919446158,-0.002852264275528532,0.0149243299677715,0.06724303667158459,0.1041754609395272,0.2294800901340015,0.04067503203674818,-0.1167989585140459,-0.1711132204652915,-0.02625990625364514,-0.0007546821610763194,0.01079111763377195,-0.01304600626832225,-0.007981903810952339,-2.766202436680015e-05,-0.004997012737660992,-0.002681508839427044,-0.0001928181158529777,-0.0001732647905419349,6.375240122365924e-06,0.0001503341644979667,-0.0006542041264781943,0.008368396059341095,0.01368261892933283,0.05360055777106754,0.05961635903861256,-0.0001999892003052038,-0.01231061239013335,-0.02550349861691842,-0.000249897593764078,0.0003099500849851683,-0.01622532461375021,-0.02576452865456214,-0.003407141447038702,0.0001207548066917112,-0.003359193045444665,-0.0007373854191212863,0.0001730967525286699,-9.401355948740754e-05
-0.7678894764960559,-7.705110803261415e-05,-8.360609400227893e-05,8.921191465952765e-05,0.0001865431056836715,-0.0003530281611780492,-0.001191394654730502,-5.197214833341309e-05,0.00122571694189202,-0.0001403629650792139,-0.002163776880621847,-0.0008532673887767016,0.0005155041103687832,0.00176540830836571,-0.003370427991228068,-0.00660128624741635,-0.0001553813830409678,1.24451472017595e-05,-0.0001375508247325954,3.334121931396267e-06,-2.724667044661231e-05,5.861656993927183e-05,0.0001136291315498638,-0.0001194226294240629,0.0008885709755305963,0.007215536969581891,0.01388759553467543,-0.001653844869865909,-0.000987070032864981,0.004986883508083637,0.001000078762299097,-2.006022270652989e-05,-0.01028002088351539,-0.02219869566986373,0.03604840259077255,0.07413288024757758,0.001602103624810136,-0.0008655038317645618,0.003315200284754476,0.0001311003515104619,-0.0001596269796731882,2.818078551755276e-05,-0.0001646512528443949,0.0001831361295161185,-0.0008750151866645202,-0.07184198808815771,-0.2174615492286395,-0.152649606956287,-0.2515501392170547,-0.1603396582183068,-0.1003970743248046,-0.05616681032912339,0.06892181870321666,0.05283221465658725,-0.09430816456825986,-0.01654951070492954,0.03192804006589953,-0.00145465367603448,-0.09129227920148443,-0.0002393854861821112,0.0008700347827307787,-0.0001896065693358759,0.0001033127774942817,0.0009370182472037582,-0.02625835710333739,-0.3204453401136269,-0.1592116649024163,-0.06949882427130025,-0.4444609175231286,-0.3419612324976705,-0.2232260221205105,-0.09166164632295754,0.267625558139811,0.07710483517251764,0.04298798826315509,0.04391222235078616,-0.05037233033299222,-0.02558400069461777,-0.1986075787099255,-0.01109206700282838,0.002551203228825469,0.0001172113965090336,-0.001612047041039309,-0.01352578549019911,0.1170412135921961,0.02204571615919114,-0.1130365897118004,-0.2085452584122395,-0.2696359216463469,-0.1980674844565297,-0.3311722197373642,-0.2270958244067841,0.3926879045869617,0.508983305482279,-0.09223169436678005,-0.1479361040087109,0.3459726423670987,0.2314275814224511,-0.2500866447051485,-0.04672714647025362,0.004293151761507039,0.0008047166241729598,-0.003981591321990881,0.1059387999600217,0.2331338517302262,-0.09910558747473946,-0.3764360699470815,-0.3931073712281805,-0.3308421677499126,-0.8534280490184051,-0.843258060057231,0.2065023493484369,0.1451080592581533,0.1166754932186846,0.1576116596686424,-0.4746289082270857,0.5625436351192178,0.4889505646225653,-0.2617327532283767,-0.1032174073307859,0.002405508607964269,-0.005969768937499591,0.1497560502765403,0.2850628872255928,0.001095376245589978,-0.2902507597527562,-0.2124342553247,0.2988180570960514,-0.2314175193800079,-0.5109122026599082,-0.2981770680408687,0.2844039638591032,0.9282427153267245,0.5389165070766797,0.6510189418166684,-0.1245785208132054,-0.03606977361631594,0.08980387077689526,-0.2708164002883016,-0.09493160858595552,-0.002885429819750292,-0.003053428231305344,0.1831356136880186,0.3238895240539988,0.1135324333067211,-0.3830545735207949,0.1027276100024788,-0.04373176554978813,-0.7993289171286257,-0.5373759400322841,-0.4029226654143499,-0.1164047191700894,0.3018369028187772,0.1576073932340345,0.6972229466789164,0.6163308599878705,0.7355690317589584,-0.2657192048985699,-0.4017732742559678,-0.04752444129380844,-0.003209832140980392,0.005778665763065414,0.08015075041992863,0.2397791817885919,-0.05540215608605649,-0.161967934737197,0.1641604590925222,-0.1990576708862851,-0.6306699299926085,-0.9184191217301129,-0.5059717152930379,-0.1229067133715227,0.1950912650659083,0.865125210328641,0.2551054483423825,0.5743274794793221,0.6429444418328975,-0.3813163450916668,-0.7545766601576671,-0.05243185358825649,-0.01597243499104995,-0.007215726808322396,0.1194903535228195,0.1614737808682615,-0.05068428085030389,-0.1249817404908667,-0.335101637317285,0.1324425046197628,-0.5104892743739748,-0.4207197584945427,0.08386976537335041,0.191982815527834,0.4887427730683101,0.6883536013264111,0.3375099501934994,0.05857386064009565,0.3229230731716317,0.1537439390744352,-0.7994542670178794,-0.1707309580195792,0.006134929366655269,-0.01593095046820128,0.2948673664032746,0.1198729757899096,0.04452490600847604,-0.1826033183621659,-0.08352738871160698,0.3952675003067799,0.1443873096889298,0.2259675102638895,0.3633038919103574,0.9916032407265404,0.9433454042574717,0.9608213015944482,0.4228804496096187,0.1293307377150795,-0.4826505422074594,-0.09151192042945926,-0.4940013780536949,-0.206571075840483,0.01444273934603032,0.007261436073642287,0.09087244715086989,-0.04892773392257591,0.04063173651008887,-0.3181319444586896,-0.4008479316202511,-0.8617466732734645,-0.4460610993289331,-0.2052925278182229,0.1158847431764585,-0.2069216066363559,-0.5039972393319787,-0.8554778684769714,-0.01747959247697917,0.5730862114136946,-0.09386623080252798,-0.0788731586441999,-0.3037014022442602,-0.1199253303420773,-0.004269783914476867,-0.01961201408769308,0.255280484092032,-0.04112232071145908,-0.2932992691807711,-0.2750890783050977,-0.02267687178570496,-0.6149455685483733,-0.6943143868668883,-0.4815076019623397,-0.4805290353278183,-0.2351599876742848,0.1854190059630214,-0.451463251992657,0.5492538893686387,0.3661031485198074,0.07448444869918934,-0.3812406286038683,-0.4089429054890605,-0.004045585720789898,-0.006865574868207039,-0.01049329925696562,0.1443169769173428,0.3178948225578366,0.1410552697665036,0.477617397622169,-0.4652387008345154,-0.5219537019169941,-0.5504951482032089,-0.5315431916884832,-0.4131151841095494,-0.191495075104335,-0.0715598790076251,-0.0404343458842805,0.2752244068413995,0.3202960298542213,0.569489117908728,0.2412287067524467,-0.0502345009443993,-0.1020658968741098,0.002902786977000832,0.008693325987851769,0.07134523954238101,0.3082572922750937,0.3980724281847019,-0.03541911301522306,-0.6903894403810441,-0.6509882749903525,-0.2884307253805692,-0.3650690297734729,0.01646988163507432,0.3370752237917265,-0.3812198910822056,0.1200607766431401,-0.116682867474637,0.1325362299688463,0.226139804034492,0.2964102079654374,0.3145616912038387,-0.04332643709161202,0.004847609045955994,0.0003100375967885616,0.03903807833021097,-0.1208986002046943,0.232869880343183,0.1442347051212446,0.1620394055859217,-0.7439989188362104,-0.6838271581519973,-0.2318768276580461,-0.381187034168009,0.07230303086203786,0.4993917182591885,0.2286897343506722,0.08920279526548013,0.2219436251532554,-0.19589912122583,-0.06850361341839907,0.01596431789029365,0.003902508392406188,0.005254155515442861,-0.001432413227998087,0.00610357231997759,-0.2154973560356333,0.2561151103773802,0.03079794760689334,-0.3479235792541135,-0.6756036435067362,-0.4731350005799266,-0.1874981739690335,0.1174527564322814,0.1089554887800486,0.2963835439219691,0.5659658207304489,0.6345936589547525,0.3693607716218663,0.01737901516161059,-0.1693800438820387,-0.0816889101331788,-0.001675313739833631,0.003141462199346747,7.198363541846872e-05,0.00403644187113492,-0.1995001451601504,-0.02802774390698788,0.04460132582930546,-0.3968501499310902,-0.8295680043092892,-0.3665901974699338,0.2796193802050771,0.4259759321023406,0.2104001155362197,-0.004823652830154184,-0.07720828020609279,-0.04033477887489234,-0.03705713533083484,0.02989506429250937,-0.0532147377882785,-0.01816119645628962,-0.00218455270468306,-2.139049077538533e-05,-8.457341198741377e-05,-3.986306401997039e-05,0.004664128878114388,-0.008562524202676995,0.02029578058984442,-0.077762597346362,-0.170559741473119,-0.08708987238662316,0.1142106374727256,0.06739335972200437,0.1490305130188407,0.3277952420725008,0.3172862514086995,0.06045713668012969,0.02109831736321951,0.02030983854680878,0.01602545750655891,0.004013828025850059,-0.0001710171781052436,-0.0002071140372386193,-1.685215773728697e-05,2.808404792164282e-05,0.0001936446906729943,-0.003807780817245321,0.01552204651325369,0.01679344114192773,0.01551211417783583,0.005599754791961658,-0.0111379290242055,-0.003256428883748305,0.01179181550152734,0.03721814087973363,0.04556405218922512,0.04092773105647374,0.00379528614193416,-7.340330540448981e-05,0.00450325076101012,0.001124266630421628,-0.0001532668489519963,2.712523657665711e-05
-0.6739334382118727,-0.0001932862204317884,0.0001368539719794607,-0.0002051574277660305,-9.422296349298157e-05,0.001068552257362515,0.006882560119519464,-0.0006414773773860769,0.002559751623116206,0.000245878157576234,-0.01642876295767977,-0.005756280109825746,0.000960634505103521,-0.001359734594901092,0.002050212584946598,0.001426103581006814,-0.0006333221600547566,8.868744227238576e-05,0.0001929137481138208,1.695450638452865e-05,6.698606786468697e-05,9.459283076443922e-05,7.88906300172182e-05,0.0001696966946496991,-0.002291688123641029,-0.01113868863282872,-0.007436000911123903,-0.005341057425019915,0.009730722625483829,-0.02040466745423181,-0.04905961408108959,-0.04582156486985872,-0.008511914705582678,0.006131526119520376,-0.03346863553090542,-0.01944205188433714,0.00269495954443932,-0.006528814829618822,-0.009419665657676124,-0.0009067787974149666,7.627681300989624e-05,-0.0002035056561147693,3.919342478940285e-06,-0.00280790599798965,0.01337261710467419,0.1929893523319957,0.4842065073490804,0.3013610286710905,0.2365520548475137,0.009405530369318738,-0.07536678671401779,-0.1226646838851484,-0.08360469287964491,0.1114846405052731,0.108634367241073,0.1729362531428774,0.1118165111982606,0.1117253948163207,0.2078672915824318,0.004844788765449709,-0.0006203743059349917,-6.915012256984987e-05,-4.956049620374705e-05,-0.01393627085807793,0.08595156647274722,0.6144015124259293,0.7656921579651983,0.509948632796847,-0.04897488344264854,-0.8902559023895151,-0.9118280078032313,-0.4597159997270277,0.2736705640332324,0.4760824826846881,0.437123208450753,0.4010410936758819,0.2170264112226959,0.2356948025874404,0.3360615784762386,0.05501615666704379,-0.001423188715993737,0.0002260495425779835,0.000631787322608541,-0.01581600489566759,0.05929164593410678,0.7303505546516208,0.6294829636617143,0.2446128234743759,-0.1763369571366124,-1.202221359938187,-1.120258400696514,-0.1616370771726882,0.4310812303932071,-0.08814391990914579,-0.4602738539159991,0.1766342051292262,0.2530635098235451,0.3276205608599495,0.202392663802154,0.01050655394000469,-0.0398055544677238,-0.001206782806461254,0.004035931057971665,-0.09318465821595569,0.09837511864904717,0.9128005720052161,0.3822755985380735,-0.08718377698064296,-0.3933448077051094,-1.175293242466834,-1.076080076214702,-0.1447943156545783,0.4511268558822854,-0.06262147201148643,-0.186079990586124,0.4751776444758324,0.1442411641771857,0.3374560821577904,0.7733741665656926,0.288583657703482,0.008802994851132151,0.006327364269103246,-0.1279475253580689,-0.1404984010815281,0.004506309647048127,0.4958068356027546,0.3176645196255877,-0.02002826294284238,-0.7665620336078337,-1.072261696129076,-0.3930858757111715,0.228071838000665,0.07843610820029188,-0.5287188963722307,-0.3989228016846371,0.4001881599037616,0.2943093065384689,-0.1143688596324095,0.1265082555768464,0.2741131256642129,0.03376241232539508,0.005215007445436184,-0.09857566491987299,0.0642037624724888,0.302720358371478,0.6148924823459354,0.4944321081556152,0.04799866808711735,-0.7519104731672713,-0.9626657364085596,-0.1668049587166545,0.04993505960887271,-0.482022207694295,-0.2255081578364773,-0.4574209994903908,0.4222384582641004,-0.01945121845308902,-0.2356230799580563,-0.02245874487879611,0.2564138496128203,-0.03921181653240733,-0.008129583416610263,0.08553777799477924,0.4942148900909942,0.3291755887966431,0.005909624756070013,0.3685907235317007,0.01400173880313385,-0.8216543270301325,-0.3156110380104356,-0.6550084381644524,-0.4427282454068669,-0.2207243930756817,-0.4587056141571831,0.09693110596459487,0.3694320525664073,0.09945486879641051,0.1939171244032682,0.2538710573084187,0.1890379423159913,-0.0723240352548942,-0.02141347793922676,0.2014615575460815,0.5237174661400666,0.993002735146393,0.2204008268343341,0.7106332235041026,1.018145498688871,-0.9725980536862689,-1.105056340787461,-0.2960544385308034,-0.02715224213311329,-0.3192990252046515,-0.9758576034586535,-0.1933956937651983,0.4958804370166071,-0.1826291680141199,0.3382927795556757,-0.04453195751945344,-0.05977982161108203,0.00890744715938643,9.875930380215285e-05,-0.06831231291755209,0.4175553895583382,1.061003858636529,0.0336602897160829,0.4958825672288485,1.011547007440236,-0.3732408799068389,-0.5851713781580475,-0.9832980696508685,-0.7664058653766136,-0.5225439373490486,-0.2333525152269767,0.356913634275347,0.6556064447658816,-0.05563757539331436,0.4623977816870555,-0.01043077205158453,0.1669486694744212,0.01880419602548629,0.02170422528138629,-0.01269359235111497,0.129192731043911,0.1938977641998152,-0.01117072101028484,0.3696377077310785,0.7817051448513007,0.7521449403442508,-0.460248523861879,-0.4957694987674391,-0.5253842557785428,-0.4665215436168317,0.005564616149233157,-0.05412854885284841,0.1306230622577957,-0.062074218308518,0.1311169520939495,-0.1923943341468398,0.7234434955316472,0.2195662017285404,0.01180799896474939,-0.07203146918042862,0.5941493863349361,0.003796255077684688,0.04825734945146562,0.5955056953207989,0.5386338353736372,0.924249200759735,0.06207552063330859,0.3279751529218464,-0.2175883352203271,-0.1973892286937477,-0.1931409876973982,0.2533135180599972,0.2090056444304148,-0.3255273364933209,0.1557224739110547,0.03992737824617994,0.4143267248442642,0.1578873982063741,0.006785052780673067,-0.1061795496302331,0.3408484506003411,0.09626434623930076,-0.06161327064334309,0.1686498537151069,0.6049366159800912,0.2349367635681292,-0.05525100974184369,-0.3352878125356858,-0.2346910101070138,0.4758746876380102,0.5515409286423771,0.1083269149782175,0.09111094373658458,-0.1712030160207546,0.2170119719183508,0.4680381084583962,0.3582236684833057,0.1026592888446718,0.002493656809219721,-0.07520486806961055,0.2945301851579525,-0.1642412834189921,-0.08381425978579121,0.559712760064709,-0.0827105313569515,-0.1215952912268896,0.3070016525245624,-0.512548925243393,-0.5102209338757288,0.0311063679333141,-0.1761947188080201,-0.3024401461832614,0.4536062519231613,0.09213574108253379,-0.2765522414860702,-0.1206005782948821,0.02432383882013057,0.09827602567713249,0.003952445249161641,-0.06771222632536082,0.2630887139155253,-0.1099390431454922,-0.04687885534227596,0.2815469270374379,0.3794786262711093,0.4376699638387162,-0.008290891307354983,-0.544878504844613,-0.2379985367458008,0.255186353279463,0.7472946373830354,0.5915398800696683,0.5483240619912436,0.379073441623187,0.07203171969504248,0.02034159710941889,-0.0710445323521076,-0.008267024568465155,-0.001062069032365432,0.009678264424535286,0.3012408707728524,-0.006847605893292898,-0.1409197872039106,-0.04123993231048903,-0.2565731378099332,-0.2153590398371721,-0.05231593208031287,0.03519180462095511,-0.1430232104561886,0.2181144290772134,0.4192814071746174,0.009638351480827045,-0.5235064264689213,-0.3157898196968176,-0.1018202829626704,0.0008531546632247833,-0.03415761455428958,-0.0168322686278289,-0.001740639304330884,0.01618294977651554,0.2084569557933637,0.2019667070501462,-0.2115872883457019,-0.3290786022833193,-0.3830683442838879,-0.2842480827232835,-0.3009662092694309,-0.1110260435016934,-0.004916670565735552,0.462355697045834,0.3019199206326595,-0.03856438010281251,-0.2774701419112326,-0.287122627239811,-0.08635206863922097,-0.005517649611237668,-0.008088340660694998,-0.0005989914928277108,0.0001534586434390371,-0.0009697002038313034,-0.005668293271048766,0.0137234467219054,-0.07306821109252153,-0.1594396818430067,-0.1431526378774217,-0.06212975122609644,-0.03429561282348717,-0.03076208067164718,0.04981931590770144,0.2773274911995284,0.1130064020312328,0.08994665175774309,0.0510309508456621,-0.01760435237693761,-0.003324790037507045,0.00269974399030526,0.0008746389443055175,6.644154573442618e-05,-0.0002029183671289872,0.0001066808911046407,-2.091459498344354e-05,-0.00173363510078774,-0.0159294406420229,-0.01003576510582073,-0.009633754523258632,-0.003137665218425512,-0.009984143336225186,-0.0004648309917203477,0.0336205218772833,0.05748339870564301,0.005997823447797081,-0.04278447983659672,0.002981119110193636,0.004981100676921378,0.002443308887629212,0.0003381375894550756,1.66642717191554e-05,-0.0001460861850670295
-3.146340645269696,-4.980088617091983e-05,-7.113975136927361e-05,9.951407337398707e-05,0.0001030902762464051,0.0006972843721268015,0.006912797700753464,0.0002722160295250371,-0.002107800186550821,-0.0009551515923703719,-0.001330995740115141,0.0001140379263303849,-0.0007539881722451956,-0.003160809101269278,0.002796326882542245,0.009011947537982052,0.0001900276684182278,-0.0004221731304095702,7.560940518696883e-05,0.0002172425849615537,-2.767830567115096e-05,-0.0001274333474054482,-0.0001537025326374011,0.0001961264251743382,-0.000198330515681891,-0.006689657566475442,-0.05339573219524326,0.01103861785296082,0.05435479548941886,0.02094853820967145,0.01581083191962348,0.004665729748866282,0.01195205475866635,0.02982585965166452,-0.03947604766744429,-0.1057471928139448,-0.00367451608739609,0.005800692984801457,-0.003948574487834268,-0.001024253168130458,0.0002160984209469484,1.006908113633713e-05,0.0001050068646441492,-0.00159167194446074,0.008763787077698404,0.02648458569808601,0.03563689087383086,0.1949059719009044,0.1916234122987464,-0.007617901224252424,-0.1329502548064188,-0.191598340421138,-0.1110542347667908,0.08282519283776181,0.1620044144809319,0.04476585941858744,0.06305023614117741,0.06000005312920353,0.09566470812215712,0.002419779350731652,-0.0005325330267158776,-0.000129667119321429,-0.0003166602181714429,0.002126627057101045,0.05376001152365652,0.09724535444204757,0.09667055719548837,0.2276964057096772,0.1142937750119537,-0.1632755518835605,-0.04123496621178786,-0.2109450444891283,-0.3018349016063696,0.2466178652169241,0.2149551007934662,0.3980167181222979,0.2315555928432135,0.1104050235579383,0.2087220851971499,0.06555830231657873,-0.002603815631991256,-0.0002410057564893975,-6.489608213610052e-05,0.01179578320121207,0.1018252137646066,0.3206733403692485,0.3563871692625017,0.3789061214189654,0.1076970039707878,0.001683084724523995,0.4246694988306265,0.1431319801709046,-0.07544072497125086,-0.05885055196703023,-0.2411717443376457,0.2151032861685585,0.0749558557786682,-0.05000519535317688,0.2501927470042648,0.1837212925488378,-0.01409392972505095,0.003095322051150655,0.007856718636804386,-0.008055743667600875,0.1903937665089973,0.2394322744488921,0.09391159383860478,0.3508917630817343,0.3137289463208368,0.4759123039079157,0.1746143558190031,-0.3377936479927338,0.1351941495956045,-0.06741459088302446,-0.1522421554379583,0.1765350012725704,-0.05940549772813006,-0.3872867501610378,0.3765866254496104,0.3725558445029489,0.01593189113310451,0.005624054227326953,0.0005784337401589345,-0.04637817676586965,0.06807953279633298,0.1715670866419368,0.1795420628294536,0.2767542729785349,0.2860470124132248,0.2794617392902652,0.1041014973593212,-0.2447287443106471,-0.5306826806907324,-0.1722437488906459,0.1332687176251068,-0.2018926825710297,-0.1039728816827499,0.3519019051390969,0.09050659957737223,0.1440849104021097,0.01679016807891489,0.004185131087739413,0.003430205612873552,-0.2267711160301529,-0.04808679757592071,0.4538493691004337,0.2379506264213173,0.2199089516005028,-0.1218799467402701,0.4155536412099486,0.6256980281178341,0.2385617463767739,-0.3140174093270275,0.06599458147414183,-0.04944318431617366,-0.06133839728847208,-0.2290023077418141,0.5540877456781472,0.1082235995582194,0.1496649132718139,0.02699528161850118,0.003163963549893173,0.0275248808235771,-0.2693251838345686,0.04549545078108836,0.02773335766698761,0.04188227260546391,0.08375469549314817,-0.02593186866026825,0.6254640743089013,0.4601999202059834,-0.1896967270999126,-0.1872408521558076,-0.1127590795430361,-0.1259271161737545,-0.02569181281891832,-0.2045128908057333,0.5872682179084284,0.2813798865118107,0.1746359365883404,0.01190986255267507,0.001674750899590776,0.02124037465092833,-0.04900116826642345,0.05634983350979404,-0.02554118878900682,0.4273362169201236,0.5486398063013761,0.1608374449151032,0.2925688173943073,0.1840225078142429,0.1680853843725736,-0.3695828956744985,-0.3348936191189066,-0.5783441395992527,-0.2357383908908191,-0.3594384491048375,0.3121119714100291,0.288346732811594,0.2521074628115991,-0.02902044053325858,-0.0005560994535286044,0.02092471409728802,0.1972320278792453,0.308895458844161,-0.306649342138913,0.1006995952306147,0.2548931544262655,0.07057166149916889,0.4508994210538483,0.006439351348438749,-0.37308878565137,-0.1951834401738257,0.1402983164846575,-0.2346678053764622,-0.1593689405601183,0.3371083527690248,0.4234366082928527,0.2887604334325066,0.1687051321645472,-0.009518202693305623,-0.00513104795405982,0.03529360565332568,0.07639436339883063,0.4215464271964689,-0.09298990987339573,-0.01088236736472984,0.009859016979485843,0.3136896173447286,-0.008614555037284295,-0.2040059223874122,-0.334639738682156,0.203487079411401,0.03721941976201321,0.1588376728164431,-0.2110625950333343,0.2118422745987571,0.6828353242041209,0.387168999939916,0.4143693257800305,0.04477516898798651,0.002814650409332847,-0.03588383704280085,0.4998843206410557,0.4129721839057785,0.2470392563349812,0.6311357834721389,-0.1037781212518376,1.02057474422503,1.047564683512755,0.03901311815510485,-0.5852946704964064,-0.1121739161008248,-0.3085216641746096,-0.4547383771640425,-0.309187797916627,-0.4614346574890079,0.05818707949825579,-0.1858496644264885,0.1667234052554721,0.02552507002250924,-0.0005594525983108878,-0.006692712198816779,0.2907795427196938,0.4845598563300709,-0.4592502066922692,0.4206295787321405,-0.1374961293102126,0.5963365323806585,0.8195399363620756,0.03886711588999781,0.0006282821758367549,0.1311690150639281,0.2582110753751602,-0.09354702648021782,-0.5240778075691304,-0.6149024294785802,0.1405400592486707,-0.1856251400977796,-0.02890084832542922,0.05011623321423343,-0.007121919239556836,0.02059694037186892,-0.05039327553268901,0.0669444532548861,-0.2701164414497169,0.07807418644375522,-0.03458602529908873,-0.04953077627674066,0.6294824245436902,0.1277784377272866,0.238888445978578,0.0378780423767701,0.006758561489229854,0.08431624460166656,-0.5570440962709342,0.04298754955409827,0.3206787971028452,-0.3392592499059967,0.01114218002074221,0.05001654323926117,-0.001307755327071461,0.01878789947614046,0.02348344608492934,0.08065916975084753,0.2303775500531747,-0.04322499600627381,0.2252780380865392,0.3534815060625116,0.2804379068182364,0.1729112762816041,0.3775623746738569,0.005221238209633015,0.1501280656392499,0.1002167901659798,-0.4597104532415268,-0.006141109124300945,-0.04790539225385382,-0.1336061208499125,0.07590681354583133,-0.01660636817481281,0.00029339260935203,-0.0002413042278249864,0.07681529391539876,0.1548299713055662,0.08134228789206097,0.07294545587631143,0.08160938235440972,0.6607559102536337,0.654363370978748,0.3525991071155495,0.198534574288656,0.1498030529431737,-0.171914335016098,-0.3750070857530148,-0.3927988941983883,-0.345071460376902,-0.08500930484435534,-0.07354412699383389,0.01797717141350491,-0.006054146863884097,1.705406182382351e-05,-0.002288783568440784,0.02409138267553853,0.05233419151533727,-0.180041808813794,-0.09023903981677391,-0.05593854872553664,0.1748357450082906,0.1622208176124121,0.366165144741706,0.2601091019726359,0.01904557901801824,-0.1897516696719328,-0.2148705962919996,-0.2360796257140308,-0.3035539407284251,-0.04111561268736255,0.006667966237553117,-0.01528329620850326,0.00189212013713781,0.0001166515682378506,0.00066615480370649,-0.004481469603009733,-0.0132507603137673,-0.1012314258591202,-0.2137435846139997,-0.2737643243759838,-0.1971649805356136,-0.1478309500937347,0.01191782203466042,-0.1796031905706923,-0.5307044348342952,-0.2933192125949578,-0.02030663230726158,-0.01849346426306622,-0.07660781800018079,-0.02644683975834789,0.0002768128650995289,0.0005266563492015477,-4.044955654526513e-05,-4.3016808077214e-05,1.766979258050669e-05,-0.0001455838132086679,0.005816517705722239,-0.01193004762987463,0.004382363949979011,-0.02300559615951172,-0.009401478617840122,-0.00972168433272441,-0.002127491157833218,-0.04358088488506454,-0.1119533803875099,-0.08885657887425678,-0.03466890619477008,-0.0002479672445205033,0.0079210250550866,-0.002646807183710766,-0.001420715164248864,-5.19004598731647e-06,-0.0001107844697281261
